digraph Tree {
node [shape=box] ;
0 [label="X_412 <= 0.01\nentropy = 3.32\nsamples = 60000\nvalue = [5923, 6742, 5958, 6131, 5842, 5421, 5918, 6265, 5851, 5949]"] ;
1 [label="X_542 <= 0.002\nentropy = 2.854\nsamples = 20798\nvalue = [5690, 91, 809, 4138, 703, 3134, 1415, 2534, 786, 1498]"] ;
0 -> 1 [labeldistance=2.5, labelangle=45, headlabel="True"] ;
2 [label="X_436 <= 0.002\nentropy = 2.945\nsamples = 9628\nvalue = [856, 38, 237, 1286, 685, 1080, 1108, 2517, 376, 1445]"] ;
1 -> 2 ;
3 [label="X_488 <= 0.002\nentropy = 2.559\nsamples = 6971\nvalue = [428, 9, 83, 1176, 533, 858, 154, 2478, 42, 1210]"] ;
2 -> 3 ;
4 [label="X_133 <= 0.006\nentropy = 2.309\nsamples = 6156\nvalue = [100, 9, 51, 1102, 513, 705, 23, 2459, 19, 1175]"] ;
3 -> 4 ;
5 [label="X_382 <= 0.004\nentropy = 1.692\nsamples = 3714\nvalue = [44, 7, 9, 98, 373, 138, 12, 2277, 1, 755]"] ;
4 -> 5 ;
6 [label="X_218 <= 0.096\nentropy = 0.985\nsamples = 2613\nvalue = [38, 5, 6, 62, 72, 72, 5, 2216, 1, 136]"] ;
5 -> 6 ;
7 [label="X_190 <= 0.084\nentropy = 1.935\nsamples = 383\nvalue = [4, 2, 1, 28, 67, 13, 4, 217, 1, 46]"] ;
6 -> 7 ;
8 [label="X_309 <= 0.024\nentropy = 1.729\nsamples = 236\nvalue = [3, 2, 1, 22, 67, 5, 4, 131, 1, 0]"] ;
7 -> 8 ;
9 [label="entropy = 1.932\nsamples = 106\nvalue = [0, 2, 1, 22, 44, 4, 0, 32, 1, 0]"] ;
8 -> 9 ;
10 [label="entropy = 1.075\nsamples = 130\nvalue = [3, 0, 0, 0, 23, 1, 4, 99, 0, 0]"] ;
8 -> 10 ;
11 [label="entropy = 1.443\nsamples = 147\nvalue = [1, 0, 0, 6, 0, 8, 0, 86, 0, 46]"] ;
7 -> 11 ;
12 [label="X_328 <= 0.253\nentropy = 0.708\nsamples = 2230\nvalue = [34, 3, 5, 34, 5, 59, 1, 1999, 0, 90]"] ;
6 -> 12 ;
13 [label="X_415 <= 0.108\nentropy = 0.311\nsamples = 2024\nvalue = [33, 0, 5, 16, 0, 9, 1, 1948, 0, 12]"] ;
12 -> 13 ;
14 [label="entropy = 1.158\nsamples = 186\nvalue = [30, 0, 1, 6, 0, 6, 0, 141, 0, 2]"] ;
13 -> 14 ;
15 [label="X_363 <= 0.033\nentropy = 0.161\nsamples = 1838\nvalue = [3, 0, 4, 10, 0, 3, 1, 1807, 0, 10]"] ;
13 -> 15 ;
16 [label="X_324 <= 0.004\nentropy = 0.359\nsamples = 458\nvalue = [0, 0, 2, 9, 0, 3, 1, 437, 0, 6]"] ;
15 -> 16 ;
17 [label="X_551 <= 0.02\nentropy = 0.354\nsamples = 321\nvalue = [0, 0, 2, 9, 0, 2, 1, 306, 0, 1]"] ;
16 -> 17 ;
18 [label="entropy = 0.303\nsamples = 187\nvalue = [0, 0, 2, 2, 0, 2, 0, 180, 0, 1]"] ;
17 -> 18 ;
19 [label="entropy = 0.359\nsamples = 134\nvalue = [0, 0, 0, 7, 0, 0, 1, 126, 0, 0]"] ;
17 -> 19 ;
20 [label="entropy = 0.288\nsamples = 137\nvalue = [0, 0, 0, 0, 0, 1, 0, 131, 0, 5]"] ;
16 -> 20 ;
21 [label="X_212 <= 0.002\nentropy = 0.075\nsamples = 1380\nvalue = [3, 0, 2, 1, 0, 0, 0, 1370, 0, 4]"] ;
15 -> 21 ;
22 [label="X_269 <= 0.388\nentropy = 0.204\nsamples = 320\nvalue = [3, 0, 1, 0, 0, 0, 0, 312, 0, 4]"] ;
21 -> 22 ;
23 [label="entropy = 0.435\nsamples = 100\nvalue = [3, 0, 0, 0, 0, 0, 0, 93, 0, 4]"] ;
22 -> 23 ;
24 [label="X_254 <= 0.163\nentropy = 0.042\nsamples = 220\nvalue = [0, 0, 1, 0, 0, 0, 0, 219, 0, 0]"] ;
22 -> 24 ;
25 [label="entropy = 0.081\nsamples = 100\nvalue = [0, 0, 1, 0, 0, 0, 0, 99, 0, 0]"] ;
24 -> 25 ;
26 [label="entropy = 0.0\nsamples = 120\nvalue = [0, 0, 0, 0, 0, 0, 0, 120, 0, 0]"] ;
24 -> 26 ;
27 [label="X_181 <= 0.386\nentropy = 0.022\nsamples = 1060\nvalue = [0, 0, 1, 1, 0, 0, 0, 1058, 0, 0]"] ;
21 -> 27 ;
28 [label="entropy = 0.0\nsamples = 842\nvalue = [0, 0, 0, 0, 0, 0, 0, 842, 0, 0]"] ;
27 -> 28 ;
29 [label="X_237 <= 0.347\nentropy = 0.084\nsamples = 218\nvalue = [0, 0, 1, 1, 0, 0, 0, 216, 0, 0]"] ;
27 -> 29 ;
30 [label="entropy = 0.16\nsamples = 101\nvalue = [0, 0, 1, 1, 0, 0, 0, 99, 0, 0]"] ;
29 -> 30 ;
31 [label="entropy = 0.0\nsamples = 117\nvalue = [0, 0, 0, 0, 0, 0, 0, 117, 0, 0]"] ;
29 -> 31 ;
32 [label="X_275 <= 0.239\nentropy = 2.089\nsamples = 206\nvalue = [1, 3, 0, 18, 5, 50, 0, 51, 0, 78]"] ;
12 -> 32 ;
33 [label="entropy = 1.673\nsamples = 105\nvalue = [0, 1, 0, 8, 3, 38, 0, 3, 0, 52]"] ;
32 -> 33 ;
34 [label="entropy = 2.0\nsamples = 101\nvalue = [1, 2, 0, 10, 2, 12, 0, 48, 0, 26]"] ;
32 -> 34 ;
35 [label="X_190 <= 0.016\nentropy = 1.742\nsamples = 1101\nvalue = [6, 2, 3, 36, 301, 66, 7, 61, 0, 619]"] ;
5 -> 35 ;
36 [label="X_214 <= 0.453\nentropy = 0.896\nsamples = 308\nvalue = [1, 0, 0, 8, 264, 7, 1, 10, 0, 17]"] ;
35 -> 36 ;
37 [label="entropy = 1.33\nsamples = 157\nvalue = [1, 0, 0, 7, 119, 7, 1, 9, 0, 13]"] ;
36 -> 37 ;
38 [label="entropy = 0.291\nsamples = 151\nvalue = [0, 0, 0, 1, 145, 0, 0, 1, 0, 4]"] ;
36 -> 38 ;
39 [label="X_571 <= 0.018\nentropy = 1.364\nsamples = 793\nvalue = [5, 2, 3, 28, 37, 59, 6, 51, 0, 602]"] ;
35 -> 39 ;
40 [label="X_301 <= 0.076\nentropy = 1.134\nsamples = 693\nvalue = [2, 1, 3, 11, 32, 32, 6, 44, 0, 562]"] ;
39 -> 40 ;
41 [label="X_351 <= 0.035\nentropy = 0.663\nsamples = 503\nvalue = [1, 0, 0, 2, 13, 17, 1, 16, 0, 453]"] ;
40 -> 41 ;
42 [label="X_166 <= 0.418\nentropy = 0.691\nsamples = 222\nvalue = [0, 0, 0, 2, 3, 3, 1, 16, 0, 197]"] ;
41 -> 42 ;
43 [label="entropy = 1.011\nsamples = 100\nvalue = [0, 0, 0, 2, 3, 1, 1, 12, 0, 81]"] ;
42 -> 43 ;
44 [label="entropy = 0.328\nsamples = 122\nvalue = [0, 0, 0, 0, 0, 2, 0, 4, 0, 116]"] ;
42 -> 44 ;
45 [label="X_278 <= 0.475\nentropy = 0.538\nsamples = 281\nvalue = [1, 0, 0, 0, 10, 14, 0, 0, 0, 256]"] ;
41 -> 45 ;
46 [label="entropy = 1.012\nsamples = 100\nvalue = [1, 0, 0, 0, 7, 14, 0, 0, 0, 78]"] ;
45 -> 46 ;
47 [label="entropy = 0.122\nsamples = 181\nvalue = [0, 0, 0, 0, 3, 0, 0, 0, 0, 178]"] ;
45 -> 47 ;
48 [label="entropy = 2.009\nsamples = 190\nvalue = [1, 1, 3, 9, 19, 15, 5, 28, 0, 109]"] ;
40 -> 48 ;
49 [label="entropy = 2.176\nsamples = 100\nvalue = [3, 1, 0, 17, 5, 27, 0, 7, 0, 40]"] ;
39 -> 49 ;
50 [label="X_108 <= 0.006\nentropy = 2.29\nsamples = 2442\nvalue = [56, 2, 42, 1004, 140, 567, 11, 182, 18, 420]"] ;
4 -> 50 ;
51 [label="X_331 <= 0.147\nentropy = 2.338\nsamples = 1055\nvalue = [7, 0, 8, 217, 105, 185, 1, 172, 4, 356]"] ;
50 -> 51 ;
52 [label="X_299 <= 0.004\nentropy = 1.912\nsamples = 261\nvalue = [7, 0, 7, 18, 11, 31, 1, 161, 1, 24]"] ;
51 -> 52 ;
53 [label="entropy = 1.392\nsamples = 120\nvalue = [3, 0, 7, 7, 4, 2, 0, 91, 0, 6]"] ;
52 -> 53 ;
54 [label="entropy = 2.099\nsamples = 141\nvalue = [4, 0, 0, 11, 7, 29, 1, 70, 1, 18]"] ;
52 -> 54 ;
55 [label="X_623 <= 0.012\nentropy = 1.978\nsamples = 794\nvalue = [0, 0, 1, 199, 94, 154, 0, 11, 3, 332]"] ;
51 -> 55 ;
56 [label="X_305 <= 0.869\nentropy = 1.799\nsamples = 469\nvalue = [0, 0, 1, 62, 88, 44, 0, 10, 2, 262]"] ;
55 -> 56 ;
57 [label="X_308 <= 0.002\nentropy = 2.03\nsamples = 204\nvalue = [0, 0, 1, 36, 54, 37, 0, 0, 2, 74]"] ;
56 -> 57 ;
58 [label="entropy = 1.946\nsamples = 104\nvalue = [0, 0, 1, 34, 5, 35, 0, 0, 2, 27]"] ;
57 -> 58 ;
59 [label="entropy = 1.242\nsamples = 100\nvalue = [0, 0, 0, 2, 49, 2, 0, 0, 0, 47]"] ;
57 -> 59 ;
60 [label="X_468 <= 0.035\nentropy = 1.377\nsamples = 265\nvalue = [0, 0, 0, 26, 34, 7, 0, 10, 0, 188]"] ;
56 -> 60 ;
61 [label="entropy = 1.713\nsamples = 100\nvalue = [0, 0, 0, 22, 13, 7, 0, 2, 0, 56]"] ;
60 -> 61 ;
62 [label="entropy = 0.978\nsamples = 165\nvalue = [0, 0, 0, 4, 21, 0, 0, 8, 0, 132]"] ;
60 -> 62 ;
63 [label="X_469 <= 0.649\nentropy = 1.689\nsamples = 325\nvalue = [0, 0, 0, 137, 6, 110, 0, 1, 1, 70]"] ;
55 -> 63 ;
64 [label="X_223 <= 0.012\nentropy = 1.19\nsamples = 210\nvalue = [0, 0, 0, 110, 0, 92, 0, 0, 0, 8]"] ;
63 -> 64 ;
65 [label="entropy = 1.005\nsamples = 101\nvalue = [0, 0, 0, 35, 0, 65, 0, 0, 0, 1]"] ;
64 -> 65 ;
66 [label="entropy = 1.124\nsamples = 109\nvalue = [0, 0, 0, 75, 0, 27, 0, 0, 0, 7]"] ;
64 -> 66 ;
67 [label="entropy = 1.731\nsamples = 115\nvalue = [0, 0, 0, 27, 6, 18, 0, 1, 1, 62]"] ;
63 -> 67 ;
68 [label="X_241 <= 0.084\nentropy = 1.8\nsamples = 1387\nvalue = [49, 2, 34, 787, 35, 382, 10, 10, 14, 64]"] ;
50 -> 68 ;
69 [label="X_302 <= 0.014\nentropy = 1.535\nsamples = 1023\nvalue = [34, 1, 24, 707, 24, 184, 9, 7, 8, 25]"] ;
68 -> 69 ;
70 [label="entropy = 2.719\nsamples = 159\nvalue = [32, 1, 23, 27, 11, 44, 5, 7, 0, 9]"] ;
69 -> 70 ;
71 [label="X_272 <= 0.288\nentropy = 1.025\nsamples = 864\nvalue = [2, 0, 1, 680, 13, 140, 4, 0, 8, 16]"] ;
69 -> 71 ;
72 [label="X_276 <= 0.331\nentropy = 0.426\nsamples = 506\nvalue = [0, 0, 1, 476, 4, 18, 0, 0, 3, 4]"] ;
71 -> 72 ;
73 [label="entropy = 0.967\nsamples = 101\nvalue = [0, 0, 1, 81, 4, 14, 0, 0, 1, 0]"] ;
72 -> 73 ;
74 [label="X_194 <= 0.367\nentropy = 0.205\nsamples = 405\nvalue = [0, 0, 0, 395, 0, 4, 0, 0, 2, 4]"] ;
72 -> 74 ;
75 [label="entropy = 0.42\nsamples = 166\nvalue = [0, 0, 0, 156, 0, 4, 0, 0, 2, 4]"] ;
74 -> 75 ;
76 [label="entropy = 0.0\nsamples = 239\nvalue = [0, 0, 0, 239, 0, 0, 0, 0, 0, 0]"] ;
74 -> 76 ;
77 [label="X_273 <= 0.802\nentropy = 1.49\nsamples = 358\nvalue = [2, 0, 0, 204, 9, 122, 4, 0, 5, 12]"] ;
71 -> 77 ;
78 [label="entropy = 1.604\nsamples = 146\nvalue = [0, 0, 0, 39, 6, 86, 4, 0, 1, 10]"] ;
77 -> 78 ;
79 [label="X_105 <= 0.575\nentropy = 1.038\nsamples = 212\nvalue = [2, 0, 0, 165, 3, 36, 0, 0, 4, 2]"] ;
77 -> 79 ;
80 [label="entropy = 1.437\nsamples = 103\nvalue = [2, 0, 0, 62, 3, 32, 0, 0, 3, 1]"] ;
79 -> 80 ;
81 [label="entropy = 0.376\nsamples = 109\nvalue = [0, 0, 0, 103, 0, 4, 0, 0, 1, 1]"] ;
79 -> 81 ;
82 [label="X_298 <= 0.202\nentropy = 1.99\nsamples = 364\nvalue = [15, 1, 10, 80, 11, 198, 1, 3, 6, 39]"] ;
68 -> 82 ;
83 [label="entropy = 2.021\nsamples = 108\nvalue = [4, 0, 8, 61, 3, 19, 0, 1, 4, 8]"] ;
82 -> 83 ;
84 [label="X_446 <= 0.065\nentropy = 1.586\nsamples = 256\nvalue = [11, 1, 2, 19, 8, 179, 1, 2, 2, 31]"] ;
82 -> 84 ;
85 [label="entropy = 2.002\nsamples = 103\nvalue = [3, 1, 1, 5, 8, 53, 0, 2, 2, 28]"] ;
84 -> 85 ;
86 [label="entropy = 0.975\nsamples = 153\nvalue = [8, 0, 1, 14, 0, 126, 1, 0, 0, 3]"] ;
84 -> 86 ;
87 [label="X_357 <= 0.029\nentropy = 2.501\nsamples = 815\nvalue = [328, 0, 32, 74, 20, 153, 131, 19, 23, 35]"] ;
3 -> 87 ;
88 [label="X_194 <= 0.014\nentropy = 2.113\nsamples = 575\nvalue = [321, 0, 10, 34, 14, 57, 86, 19, 3, 31]"] ;
87 -> 88 ;
89 [label="X_415 <= 0.114\nentropy = 2.421\nsamples = 218\nvalue = [58, 0, 7, 14, 10, 31, 82, 5, 1, 10]"] ;
88 -> 89 ;
90 [label="entropy = 2.211\nsamples = 116\nvalue = [50, 0, 5, 8, 0, 28, 18, 5, 1, 1]"] ;
89 -> 90 ;
91 [label="entropy = 1.849\nsamples = 102\nvalue = [8, 0, 2, 6, 10, 3, 64, 0, 0, 9]"] ;
89 -> 91 ;
92 [label="X_406 <= 0.175\nentropy = 1.502\nsamples = 357\nvalue = [263, 0, 3, 20, 4, 26, 4, 14, 2, 21]"] ;
88 -> 92 ;
93 [label="entropy = 2.185\nsamples = 100\nvalue = [45, 0, 3, 17, 0, 22, 2, 3, 1, 7]"] ;
92 -> 93 ;
94 [label="X_501 <= 0.01\nentropy = 0.972\nsamples = 257\nvalue = [218, 0, 0, 3, 4, 4, 2, 11, 1, 14]"] ;
92 -> 94 ;
95 [label="entropy = 1.449\nsamples = 123\nvalue = [88, 0, 0, 3, 4, 4, 0, 10, 0, 14]"] ;
94 -> 95 ;
96 [label="entropy = 0.238\nsamples = 134\nvalue = [130, 0, 0, 0, 0, 0, 2, 1, 1, 0]"] ;
94 -> 96 ;
97 [label="X_136 <= 0.033\nentropy = 2.407\nsamples = 240\nvalue = [7, 0, 22, 40, 6, 96, 45, 0, 20, 4]"] ;
87 -> 97 ;
98 [label="entropy = 1.797\nsamples = 100\nvalue = [1, 0, 9, 6, 5, 64, 12, 0, 1, 2]"] ;
97 -> 98 ;
99 [label="entropy = 2.517\nsamples = 140\nvalue = [6, 0, 13, 34, 1, 32, 33, 0, 19, 2]"] ;
97 -> 99 ;
100 [label="X_601 <= 0.006\nentropy = 2.765\nsamples = 2657\nvalue = [428, 29, 154, 110, 152, 222, 954, 39, 334, 235]"] ;
2 -> 100 ;
101 [label="X_196 <= 0.002\nentropy = 2.192\nsamples = 1535\nvalue = [96, 23, 119, 25, 107, 77, 881, 20, 27, 160]"] ;
100 -> 101 ;
102 [label="X_604 <= 0.004\nentropy = 1.679\nsamples = 1216\nvalue = [38, 18, 88, 16, 46, 34, 864, 12, 11, 89]"] ;
101 -> 102 ;
103 [label="X_360 <= 0.002\nentropy = 1.345\nsamples = 1101\nvalue = [36, 17, 85, 15, 21, 26, 862, 3, 7, 29]"] ;
102 -> 103 ;
104 [label="X_549 <= 0.218\nentropy = 1.912\nsamples = 420\nvalue = [34, 15, 71, 6, 10, 15, 255, 1, 1, 12]"] ;
103 -> 104 ;
105 [label="entropy = 2.676\nsamples = 128\nvalue = [14, 14, 38, 0, 8, 10, 30, 1, 1, 12]"] ;
104 -> 105 ;
106 [label="X_329 <= 0.865\nentropy = 1.203\nsamples = 292\nvalue = [20, 1, 33, 6, 2, 5, 225, 0, 0, 0]"] ;
104 -> 106 ;
107 [label="entropy = 1.147\nsamples = 178\nvalue = [20, 0, 7, 6, 2, 3, 140, 0, 0, 0]"] ;
106 -> 107 ;
108 [label="entropy = 0.964\nsamples = 114\nvalue = [0, 1, 26, 0, 0, 2, 85, 0, 0, 0]"] ;
106 -> 108 ;
109 [label="X_549 <= 0.11\nentropy = 0.805\nsamples = 681\nvalue = [2, 2, 14, 9, 11, 11, 607, 2, 6, 17]"] ;
103 -> 109 ;
110 [label="entropy = 1.958\nsamples = 100\nvalue = [0, 1, 10, 0, 7, 4, 58, 2, 2, 16]"] ;
109 -> 110 ;
111 [label="X_384 <= 0.004\nentropy = 0.455\nsamples = 581\nvalue = [2, 1, 4, 9, 4, 7, 549, 0, 4, 1]"] ;
109 -> 111 ;
112 [label="entropy = 0.847\nsamples = 178\nvalue = [2, 1, 2, 9, 4, 5, 155, 0, 0, 0]"] ;
111 -> 112 ;
113 [label="X_494 <= 0.002\nentropy = 0.195\nsamples = 403\nvalue = [0, 0, 2, 0, 0, 2, 394, 0, 4, 1]"] ;
111 -> 113 ;
114 [label="entropy = 0.283\nsamples = 156\nvalue = [0, 0, 0, 0, 0, 1, 150, 0, 4, 1]"] ;
113 -> 114 ;
115 [label="X_275 <= 0.049\nentropy = 0.106\nsamples = 247\nvalue = [0, 0, 2, 0, 0, 1, 244, 0, 0, 0]"] ;
113 -> 115 ;
116 [label="entropy = 0.0\nsamples = 147\nvalue = [0, 0, 0, 0, 0, 0, 147, 0, 0, 0]"] ;
115 -> 116 ;
117 [label="entropy = 0.222\nsamples = 100\nvalue = [0, 0, 2, 0, 0, 1, 97, 0, 0, 0]"] ;
115 -> 117 ;
118 [label="entropy = 2.152\nsamples = 115\nvalue = [2, 1, 3, 1, 25, 8, 2, 9, 4, 60]"] ;
102 -> 118 ;
119 [label="X_546 <= 0.012\nentropy = 2.917\nsamples = 319\nvalue = [58, 5, 31, 9, 61, 43, 17, 8, 16, 71]"] ;
101 -> 119 ;
120 [label="entropy = 2.565\nsamples = 196\nvalue = [14, 3, 14, 6, 58, 26, 3, 5, 4, 63]"] ;
119 -> 120 ;
121 [label="entropy = 2.749\nsamples = 123\nvalue = [44, 2, 17, 3, 3, 17, 14, 3, 12, 8]"] ;
119 -> 121 ;
122 [label="X_330 <= 0.002\nentropy = 2.694\nsamples = 1122\nvalue = [332, 6, 35, 85, 45, 145, 73, 19, 307, 75]"] ;
100 -> 122 ;
123 [label="X_574 <= 0.606\nentropy = 1.938\nsamples = 500\nvalue = [310, 0, 8, 6, 36, 70, 17, 18, 10, 25]"] ;
122 -> 123 ;
124 [label="entropy = 2.554\nsamples = 122\nvalue = [23, 0, 2, 0, 28, 30, 3, 15, 2, 19]"] ;
123 -> 124 ;
125 [label="X_518 <= 0.751\nentropy = 1.396\nsamples = 378\nvalue = [287, 0, 6, 6, 8, 40, 14, 3, 8, 6]"] ;
123 -> 125 ;
126 [label="entropy = 2.394\nsamples = 101\nvalue = [37, 0, 1, 2, 8, 32, 5, 3, 8, 5]"] ;
125 -> 126 ;
127 [label="X_279 <= 0.608\nentropy = 0.664\nsamples = 277\nvalue = [250, 0, 5, 4, 0, 8, 9, 0, 0, 1]"] ;
125 -> 127 ;
128 [label="entropy = 1.129\nsamples = 108\nvalue = [86, 0, 3, 2, 0, 7, 9, 0, 0, 1]"] ;
127 -> 128 ;
129 [label="entropy = 0.237\nsamples = 169\nvalue = [164, 0, 2, 2, 0, 1, 0, 0, 0, 0]"] ;
127 -> 129 ;
130 [label="X_407 <= 0.143\nentropy = 2.395\nsamples = 622\nvalue = [22, 6, 27, 79, 9, 75, 56, 1, 297, 50]"] ;
122 -> 130 ;
131 [label="X_251 <= 0.006\nentropy = 1.788\nsamples = 351\nvalue = [6, 6, 19, 36, 1, 34, 14, 0, 230, 5]"] ;
130 -> 131 ;
132 [label="entropy = 2.113\nsamples = 163\nvalue = [1, 6, 9, 20, 0, 31, 13, 0, 82, 1]"] ;
131 -> 132 ;
133 [label="entropy = 1.232\nsamples = 188\nvalue = [5, 0, 10, 16, 1, 3, 1, 0, 148, 4]"] ;
131 -> 133 ;
134 [label="X_546 <= 0.116\nentropy = 2.75\nsamples = 271\nvalue = [16, 0, 8, 43, 8, 41, 42, 1, 67, 45]"] ;
130 -> 134 ;
135 [label="entropy = 2.301\nsamples = 111\nvalue = [2, 0, 0, 26, 7, 21, 1, 1, 12, 41]"] ;
134 -> 135 ;
136 [label="entropy = 2.454\nsamples = 160\nvalue = [14, 0, 8, 17, 1, 20, 41, 0, 55, 4]"] ;
134 -> 136 ;
137 [label="X_311 <= 0.018\nentropy = 2.115\nsamples = 11170\nvalue = [4834, 53, 572, 2852, 18, 2054, 307, 17, 410, 53]"] ;
1 -> 137 ;
138 [label="X_244 <= 0.002\nentropy = 2.237\nsamples = 7123\nvalue = [1155, 52, 500, 2785, 16, 1982, 223, 8, 362, 40]"] ;
137 -> 138 ;
139 [label="X_461 <= 0.057\nentropy = 1.803\nsamples = 3196\nvalue = [143, 48, 432, 2006, 8, 374, 60, 5, 110, 10]"] ;
138 -> 139 ;
140 [label="X_436 <= 0.102\nentropy = 1.171\nsamples = 2071\nvalue = [14, 36, 106, 1607, 2, 273, 6, 3, 18, 6]"] ;
139 -> 140 ;
141 [label="X_241 <= 0.312\nentropy = 0.919\nsamples = 1931\nvalue = [14, 4, 71, 1591, 1, 235, 1, 3, 5, 6]"] ;
140 -> 141 ;
142 [label="X_302 <= 0.002\nentropy = 0.616\nsamples = 1725\nvalue = [2, 4, 66, 1555, 1, 89, 0, 3, 4, 1]"] ;
141 -> 142 ;
143 [label="entropy = 1.747\nsamples = 127\nvalue = [1, 4, 52, 57, 1, 8, 0, 3, 1, 0]"] ;
142 -> 143 ;
144 [label="X_135 <= 0.002\nentropy = 0.396\nsamples = 1598\nvalue = [1, 0, 14, 1498, 0, 81, 0, 0, 3, 1]"] ;
142 -> 144 ;
145 [label="entropy = 1.065\nsamples = 176\nvalue = [1, 0, 3, 122, 0, 49, 0, 0, 1, 0]"] ;
144 -> 145 ;
146 [label="X_218 <= 0.396\nentropy = 0.244\nsamples = 1422\nvalue = [0, 0, 11, 1376, 0, 32, 0, 0, 2, 1]"] ;
144 -> 146 ;
147 [label="X_325 <= 0.594\nentropy = 0.168\nsamples = 1318\nvalue = [0, 0, 10, 1291, 0, 16, 0, 0, 1, 0]"] ;
146 -> 147 ;
148 [label="X_251 <= 0.004\nentropy = 0.024\nsamples = 948\nvalue = [0, 0, 1, 946, 0, 1, 0, 0, 0, 0]"] ;
147 -> 148 ;
149 [label="X_331 <= 0.833\nentropy = 0.08\nsamples = 233\nvalue = [0, 0, 1, 231, 0, 1, 0, 0, 0, 0]"] ;
148 -> 149 ;
150 [label="entropy = 0.161\nsamples = 100\nvalue = [0, 0, 1, 98, 0, 1, 0, 0, 0, 0]"] ;
149 -> 150 ;
151 [label="entropy = 0.0\nsamples = 133\nvalue = [0, 0, 0, 133, 0, 0, 0, 0, 0, 0]"] ;
149 -> 151 ;
152 [label="entropy = 0.0\nsamples = 715\nvalue = [0, 0, 0, 715, 0, 0, 0, 0, 0, 0]"] ;
148 -> 152 ;
153 [label="X_249 <= 0.72\nentropy = 0.435\nsamples = 370\nvalue = [0, 0, 9, 345, 0, 15, 0, 0, 1, 0]"] ;
147 -> 153 ;
154 [label="entropy = 0.889\nsamples = 129\nvalue = [0, 0, 9, 106, 0, 13, 0, 0, 1, 0]"] ;
153 -> 154 ;
155 [label="X_274 <= 0.902\nentropy = 0.069\nsamples = 241\nvalue = [0, 0, 0, 239, 0, 2, 0, 0, 0, 0]"] ;
153 -> 155 ;
156 [label="entropy = 0.0\nsamples = 141\nvalue = [0, 0, 0, 141, 0, 0, 0, 0, 0, 0]"] ;
155 -> 156 ;
157 [label="entropy = 0.141\nsamples = 100\nvalue = [0, 0, 0, 98, 0, 2, 0, 0, 0, 0]"] ;
155 -> 157 ;
158 [label="entropy = 0.847\nsamples = 104\nvalue = [0, 0, 1, 85, 0, 16, 0, 0, 1, 1]"] ;
146 -> 158 ;
159 [label="X_298 <= 0.767\nentropy = 1.366\nsamples = 206\nvalue = [12, 0, 5, 36, 0, 146, 1, 0, 1, 5]"] ;
141 -> 159 ;
160 [label="entropy = 1.692\nsamples = 100\nvalue = [12, 0, 5, 35, 0, 47, 1, 0, 0, 0]"] ;
159 -> 160 ;
161 [label="entropy = 0.427\nsamples = 106\nvalue = [0, 0, 0, 1, 0, 99, 0, 0, 1, 5]"] ;
159 -> 161 ;
162 [label="entropy = 2.396\nsamples = 140\nvalue = [0, 32, 35, 16, 1, 38, 5, 0, 13, 0]"] ;
140 -> 162 ;
163 [label="X_601 <= 0.045\nentropy = 2.38\nsamples = 1125\nvalue = [129, 12, 326, 399, 6, 101, 54, 2, 92, 4]"] ;
139 -> 163 ;
164 [label="X_407 <= 0.096\nentropy = 2.277\nsamples = 592\nvalue = [52, 12, 279, 115, 6, 59, 50, 2, 16, 1]"] ;
163 -> 164 ;
165 [label="X_276 <= 0.424\nentropy = 2.062\nsamples = 244\nvalue = [8, 8, 71, 101, 1, 48, 3, 2, 1, 1]"] ;
164 -> 165 ;
166 [label="entropy = 2.025\nsamples = 102\nvalue = [8, 1, 55, 15, 1, 17, 2, 2, 0, 1]"] ;
165 -> 166 ;
167 [label="entropy = 1.587\nsamples = 142\nvalue = [0, 7, 16, 86, 0, 31, 1, 0, 1, 0]"] ;
165 -> 167 ;
168 [label="X_274 <= 0.571\nentropy = 1.913\nsamples = 348\nvalue = [44, 4, 208, 14, 5, 11, 47, 0, 15, 0]"] ;
164 -> 168 ;
169 [label="entropy = 1.105\nsamples = 198\nvalue = [6, 3, 163, 7, 2, 2, 2, 0, 13, 0]"] ;
168 -> 169 ;
170 [label="entropy = 2.238\nsamples = 150\nvalue = [38, 1, 45, 7, 3, 9, 45, 0, 2, 0]"] ;
168 -> 170 ;
171 [label="X_276 <= 0.057\nentropy = 1.981\nsamples = 533\nvalue = [77, 0, 47, 284, 0, 42, 4, 0, 76, 3]"] ;
163 -> 171 ;
172 [label="entropy = 1.946\nsamples = 131\nvalue = [67, 0, 11, 7, 0, 24, 1, 0, 21, 0]"] ;
171 -> 172 ;
173 [label="X_382 <= 0.369\nentropy = 1.513\nsamples = 402\nvalue = [10, 0, 36, 277, 0, 18, 3, 0, 55, 3]"] ;
171 -> 173 ;
174 [label="X_432 <= 0.096\nentropy = 0.879\nsamples = 249\nvalue = [5, 0, 2, 213, 0, 16, 0, 0, 10, 3]"] ;
173 -> 174 ;
175 [label="entropy = 0.574\nsamples = 148\nvalue = [0, 0, 1, 134, 0, 10, 0, 0, 1, 2]"] ;
174 -> 175 ;
176 [label="entropy = 1.177\nsamples = 101\nvalue = [5, 0, 1, 79, 0, 6, 0, 0, 9, 1]"] ;
174 -> 176 ;
177 [label="entropy = 1.882\nsamples = 153\nvalue = [5, 0, 34, 64, 0, 2, 3, 0, 45, 0]"] ;
173 -> 177 ;
178 [label="X_305 <= 0.006\nentropy = 2.131\nsamples = 3927\nvalue = [1012, 4, 68, 779, 8, 1608, 163, 3, 252, 30]"] ;
138 -> 178 ;
179 [label="X_280 <= 0.061\nentropy = 1.569\nsamples = 1544\nvalue = [898, 1, 42, 54, 1, 466, 70, 2, 6, 4]"] ;
178 -> 179 ;
180 [label="X_406 <= 0.006\nentropy = 1.498\nsamples = 623\nvalue = [74, 1, 8, 38, 0, 428, 68, 0, 5, 1]"] ;
179 -> 180 ;
181 [label="X_108 <= 0.533\nentropy = 0.848\nsamples = 426\nvalue = [24, 1, 1, 37, 0, 360, 1, 0, 1, 1]"] ;
180 -> 181 ;
182 [label="X_360 <= 0.527\nentropy = 0.586\nsamples = 305\nvalue = [21, 1, 1, 4, 0, 276, 1, 0, 0, 1]"] ;
181 -> 182 ;
183 [label="entropy = 0.973\nsamples = 100\nvalue = [21, 1, 1, 0, 0, 76, 1, 0, 0, 0]"] ;
182 -> 183 ;
184 [label="X_353 <= 0.38\nentropy = 0.183\nsamples = 205\nvalue = [0, 0, 0, 4, 0, 200, 0, 0, 0, 1]"] ;
182 -> 184 ;
185 [label="entropy = 0.32\nsamples = 101\nvalue = [0, 0, 0, 4, 0, 96, 0, 0, 0, 1]"] ;
184 -> 185 ;
186 [label="entropy = 0.0\nsamples = 104\nvalue = [0, 0, 0, 0, 0, 104, 0, 0, 0, 0]"] ;
184 -> 186 ;
187 [label="entropy = 1.066\nsamples = 121\nvalue = [3, 0, 0, 33, 0, 84, 0, 0, 1, 0]"] ;
181 -> 187 ;
188 [label="entropy = 1.885\nsamples = 197\nvalue = [50, 0, 7, 1, 0, 68, 67, 0, 4, 0]"] ;
180 -> 188 ;
189 [label="X_250 <= 0.745\nentropy = 0.697\nsamples = 921\nvalue = [824, 0, 34, 16, 1, 38, 2, 2, 1, 3]"] ;
179 -> 189 ;
190 [label="X_468 <= 0.839\nentropy = 0.44\nsamples = 737\nvalue = [693, 0, 28, 4, 1, 4, 2, 2, 1, 2]"] ;
189 -> 190 ;
191 [label="X_407 <= 0.231\nentropy = 0.249\nsamples = 608\nvalue = [592, 0, 3, 3, 1, 4, 1, 1, 1, 2]"] ;
190 -> 191 ;
192 [label="entropy = 0.806\nsamples = 101\nvalue = [89, 0, 1, 3, 1, 4, 0, 1, 0, 2]"] ;
191 -> 192 ;
193 [label="X_574 <= 0.802\nentropy = 0.078\nsamples = 507\nvalue = [503, 0, 2, 0, 0, 0, 1, 0, 1, 0]"] ;
191 -> 193 ;
194 [label="entropy = 0.222\nsamples = 100\nvalue = [97, 0, 2, 0, 0, 0, 0, 0, 1, 0]"] ;
193 -> 194 ;
195 [label="X_518 <= 0.59\nentropy = 0.025\nsamples = 407\nvalue = [406, 0, 0, 0, 0, 0, 1, 0, 0, 0]"] ;
193 -> 195 ;
196 [label="entropy = 0.0\nsamples = 307\nvalue = [307, 0, 0, 0, 0, 0, 0, 0, 0, 0]"] ;
195 -> 196 ;
197 [label="entropy = 0.081\nsamples = 100\nvalue = [99, 0, 0, 0, 0, 0, 1, 0, 0, 0]"] ;
195 -> 197 ;
198 [label="entropy = 0.898\nsamples = 129\nvalue = [101, 0, 25, 1, 0, 0, 1, 1, 0, 0]"] ;
190 -> 198 ;
199 [label="entropy = 1.258\nsamples = 184\nvalue = [131, 0, 6, 12, 0, 34, 0, 0, 0, 1]"] ;
189 -> 199 ;
200 [label="X_434 <= 0.257\nentropy = 1.945\nsamples = 2383\nvalue = [114, 3, 26, 725, 7, 1142, 93, 1, 246, 26]"] ;
178 -> 200 ;
201 [label="X_222 <= 0.014\nentropy = 1.346\nsamples = 1805\nvalue = [18, 3, 8, 671, 1, 1035, 5, 1, 37, 26]"] ;
200 -> 201 ;
202 [label="X_79 <= 0.073\nentropy = 0.859\nsamples = 929\nvalue = [4, 1, 1, 154, 0, 752, 5, 0, 11, 1]"] ;
201 -> 202 ;
203 [label="X_116 <= 0.037\nentropy = 0.703\nsamples = 769\nvalue = [4, 1, 1, 73, 0, 673, 5, 0, 11, 1]"] ;
202 -> 203 ;
204 [label="X_87 <= 0.047\nentropy = 1.026\nsamples = 346\nvalue = [3, 1, 1, 60, 0, 270, 4, 0, 6, 1]"] ;
203 -> 204 ;
205 [label="X_188 <= 0.755\nentropy = 1.215\nsamples = 222\nvalue = [3, 1, 1, 56, 0, 154, 1, 0, 5, 1]"] ;
204 -> 205 ;
206 [label="entropy = 1.329\nsamples = 100\nvalue = [2, 1, 1, 44, 0, 51, 0, 0, 1, 0]"] ;
205 -> 206 ;
207 [label="entropy = 0.867\nsamples = 122\nvalue = [1, 0, 0, 12, 0, 103, 1, 0, 4, 1]"] ;
205 -> 207 ;
208 [label="entropy = 0.436\nsamples = 124\nvalue = [0, 0, 0, 4, 0, 116, 3, 0, 1, 0]"] ;
204 -> 208 ;
209 [label="X_539 <= 0.412\nentropy = 0.338\nsamples = 423\nvalue = [1, 0, 0, 13, 0, 403, 1, 0, 5, 0]"] ;
203 -> 209 ;
210 [label="X_489 <= 0.139\nentropy = 0.147\nsamples = 319\nvalue = [1, 0, 0, 1, 0, 314, 1, 0, 2, 0]"] ;
209 -> 210 ;
211 [label="X_242 <= 0.433\nentropy = 0.045\nsamples = 202\nvalue = [1, 0, 0, 0, 0, 201, 0, 0, 0, 0]"] ;
210 -> 211 ;
212 [label="entropy = 0.0\nsamples = 102\nvalue = [0, 0, 0, 0, 0, 102, 0, 0, 0, 0]"] ;
211 -> 212 ;
213 [label="entropy = 0.081\nsamples = 100\nvalue = [1, 0, 0, 0, 0, 99, 0, 0, 0, 0]"] ;
211 -> 213 ;
214 [label="entropy = 0.266\nsamples = 117\nvalue = [0, 0, 0, 1, 0, 113, 1, 0, 2, 0]"] ;
210 -> 214 ;
215 [label="entropy = 0.699\nsamples = 104\nvalue = [0, 0, 0, 12, 0, 89, 0, 0, 3, 0]"] ;
209 -> 215 ;
216 [label="entropy = 1.0\nsamples = 160\nvalue = [0, 0, 0, 81, 0, 79, 0, 0, 0, 0]"] ;
202 -> 216 ;
217 [label="X_144 <= 0.033\nentropy = 1.466\nsamples = 876\nvalue = [14, 2, 7, 517, 1, 283, 0, 1, 26, 25]"] ;
201 -> 217 ;
218 [label="X_216 <= 0.163\nentropy = 1.379\nsamples = 735\nvalue = [14, 2, 7, 510, 1, 150, 0, 0, 26, 25]"] ;
217 -> 218 ;
219 [label="X_112 <= 0.12\nentropy = 0.663\nsamples = 363\nvalue = [2, 1, 1, 324, 1, 27, 0, 0, 5, 2]"] ;
218 -> 219 ;
220 [label="entropy = 1.245\nsamples = 106\nvalue = [1, 0, 1, 75, 1, 24, 0, 0, 2, 2]"] ;
219 -> 220 ;
221 [label="X_221 <= 0.959\nentropy = 0.256\nsamples = 257\nvalue = [1, 1, 0, 249, 0, 3, 0, 0, 3, 0]"] ;
219 -> 221 ;
222 [label="entropy = 0.348\nsamples = 115\nvalue = [0, 0, 0, 109, 0, 3, 0, 0, 3, 0]"] ;
221 -> 222 ;
223 [label="entropy = 0.121\nsamples = 142\nvalue = [1, 1, 0, 140, 0, 0, 0, 0, 0, 0]"] ;
221 -> 223 ;
224 [label="X_109 <= 0.022\nentropy = 1.789\nsamples = 372\nvalue = [12, 1, 6, 186, 0, 123, 0, 0, 21, 23]"] ;
218 -> 224 ;
225 [label="entropy = 1.38\nsamples = 130\nvalue = [2, 1, 1, 48, 0, 73, 0, 0, 5, 0]"] ;
224 -> 225 ;
226 [label="X_243 <= 0.79\nentropy = 1.82\nsamples = 242\nvalue = [10, 0, 5, 138, 0, 50, 0, 0, 16, 23]"] ;
224 -> 226 ;
227 [label="entropy = 1.296\nsamples = 134\nvalue = [0, 0, 3, 99, 0, 16, 0, 0, 7, 9]"] ;
226 -> 227 ;
228 [label="entropy = 2.161\nsamples = 108\nvalue = [10, 0, 2, 39, 0, 34, 0, 0, 9, 14]"] ;
226 -> 228 ;
229 [label="entropy = 0.345\nsamples = 141\nvalue = [0, 0, 0, 7, 0, 133, 0, 1, 0, 0]"] ;
217 -> 229 ;
230 [label="X_223 <= 0.029\nentropy = 2.369\nsamples = 578\nvalue = [96, 0, 18, 54, 6, 107, 88, 0, 209, 0]"] ;
200 -> 230 ;
231 [label="X_599 <= 0.096\nentropy = 2.046\nsamples = 242\nvalue = [4, 0, 4, 18, 1, 78, 83, 0, 54, 0]"] ;
230 -> 231 ;
232 [label="entropy = 1.636\nsamples = 120\nvalue = [1, 0, 4, 6, 1, 26, 75, 0, 7, 0]"] ;
231 -> 232 ;
233 [label="entropy = 1.773\nsamples = 122\nvalue = [3, 0, 0, 12, 0, 52, 8, 0, 47, 0]"] ;
231 -> 233 ;
234 [label="X_359 <= 0.335\nentropy = 2.049\nsamples = 336\nvalue = [92, 0, 14, 36, 5, 29, 5, 0, 155, 0]"] ;
230 -> 234 ;
235 [label="entropy = 1.966\nsamples = 166\nvalue = [89, 0, 11, 24, 2, 9, 2, 0, 29, 0]"] ;
234 -> 235 ;
236 [label="entropy = 1.365\nsamples = 170\nvalue = [3, 0, 3, 12, 3, 20, 3, 0, 126, 0]"] ;
234 -> 236 ;
237 [label="X_303 <= 0.229\nentropy = 0.676\nsamples = 4047\nvalue = [3679, 1, 72, 67, 2, 72, 84, 9, 48, 13]"] ;
137 -> 237 ;
238 [label="X_333 <= 0.01\nentropy = 0.355\nsamples = 3419\nvalue = [3275, 1, 55, 7, 2, 16, 37, 8, 13, 5]"] ;
237 -> 238 ;
239 [label="X_465 <= 0.563\nentropy = 0.245\nsamples = 3234\nvalue = [3143, 1, 51, 3, 2, 14, 5, 7, 3, 5]"] ;
238 -> 239 ;
240 [label="X_405 <= 0.004\nentropy = 0.15\nsamples = 3096\nvalue = [3049, 1, 17, 3, 0, 11, 5, 6, 0, 4]"] ;
239 -> 240 ;
241 [label="X_430 <= 0.918\nentropy = 0.845\nsamples = 218\nvalue = [189, 1, 10, 1, 0, 10, 0, 5, 0, 2]"] ;
240 -> 241 ;
242 [label="entropy = 1.382\nsamples = 101\nvalue = [74, 1, 10, 1, 0, 9, 0, 5, 0, 1]"] ;
241 -> 242 ;
243 [label="entropy = 0.142\nsamples = 117\nvalue = [115, 0, 0, 0, 0, 1, 0, 0, 0, 1]"] ;
241 -> 243 ;
244 [label="X_196 <= 0.002\nentropy = 0.069\nsamples = 2878\nvalue = [2860, 0, 7, 2, 0, 1, 5, 1, 0, 2]"] ;
240 -> 244 ;
245 [label="X_572 <= 0.751\nentropy = 0.329\nsamples = 364\nvalue = [349, 0, 6, 2, 0, 1, 5, 0, 0, 1]"] ;
244 -> 245 ;
246 [label="entropy = 0.762\nsamples = 101\nvalue = [88, 0, 6, 1, 0, 0, 5, 0, 0, 1]"] ;
245 -> 246 ;
247 [label="X_216 <= 0.684\nentropy = 0.072\nsamples = 263\nvalue = [261, 0, 0, 1, 0, 1, 0, 0, 0, 0]"] ;
245 -> 247 ;
248 [label="entropy = 0.161\nsamples = 100\nvalue = [98, 0, 0, 1, 0, 1, 0, 0, 0, 0]"] ;
247 -> 248 ;
249 [label="entropy = 0.0\nsamples = 163\nvalue = [163, 0, 0, 0, 0, 0, 0, 0, 0, 0]"] ;
247 -> 249 ;
250 [label="X_441 <= 0.869\nentropy = 0.015\nsamples = 2514\nvalue = [2511, 0, 1, 0, 0, 0, 0, 1, 0, 1]"] ;
244 -> 250 ;
251 [label="X_581 <= 0.778\nentropy = 0.005\nsamples = 2414\nvalue = [2413, 0, 0, 0, 0, 0, 0, 1, 0, 0]"] ;
250 -> 251 ;
252 [label="entropy = 0.0\nsamples = 2314\nvalue = [2314, 0, 0, 0, 0, 0, 0, 0, 0, 0]"] ;
251 -> 252 ;
253 [label="entropy = 0.081\nsamples = 100\nvalue = [99, 0, 0, 0, 0, 0, 0, 1, 0, 0]"] ;
251 -> 253 ;
254 [label="entropy = 0.161\nsamples = 100\nvalue = [98, 0, 1, 0, 0, 0, 0, 0, 0, 1]"] ;
250 -> 254 ;
255 [label="entropy = 1.307\nsamples = 138\nvalue = [94, 0, 34, 0, 2, 3, 0, 1, 3, 1]"] ;
239 -> 255 ;
256 [label="entropy = 1.363\nsamples = 185\nvalue = [132, 0, 4, 4, 0, 2, 32, 1, 10, 0]"] ;
238 -> 256 ;
257 [label="X_221 <= 0.276\nentropy = 1.792\nsamples = 628\nvalue = [404, 0, 17, 60, 0, 56, 47, 1, 35, 8]"] ;
237 -> 257 ;
258 [label="X_433 <= 0.386\nentropy = 2.6\nsamples = 201\nvalue = [43, 0, 14, 24, 0, 48, 40, 0, 26, 6]"] ;
257 -> 258 ;
259 [label="entropy = 2.311\nsamples = 100\nvalue = [14, 0, 6, 22, 0, 42, 3, 0, 7, 6]"] ;
258 -> 259 ;
260 [label="entropy = 2.145\nsamples = 101\nvalue = [29, 0, 8, 2, 0, 6, 37, 0, 19, 0]"] ;
258 -> 260 ;
261 [label="X_132 <= 0.371\nentropy = 0.935\nsamples = 427\nvalue = [361, 0, 3, 36, 0, 8, 7, 1, 9, 2]"] ;
257 -> 261 ;
262 [label="X_307 <= 0.112\nentropy = 0.511\nsamples = 323\nvalue = [302, 0, 1, 4, 0, 5, 5, 1, 4, 1]"] ;
261 -> 262 ;
263 [label="X_458 <= 0.841\nentropy = 0.124\nsamples = 223\nvalue = [220, 0, 0, 0, 0, 1, 1, 0, 1, 0]"] ;
262 -> 263 ;
264 [label="entropy = 0.242\nsamples = 100\nvalue = [97, 0, 0, 0, 0, 1, 1, 0, 1, 0]"] ;
263 -> 264 ;
265 [label="entropy = 0.0\nsamples = 123\nvalue = [123, 0, 0, 0, 0, 0, 0, 0, 0, 0]"] ;
263 -> 265 ;
266 [label="entropy = 1.143\nsamples = 100\nvalue = [82, 0, 1, 4, 0, 4, 4, 1, 3, 1]"] ;
262 -> 266 ;
267 [label="entropy = 1.629\nsamples = 104\nvalue = [59, 0, 2, 32, 0, 3, 2, 0, 5, 1]"] ;
261 -> 267 ;
268 [label="X_352 <= 0.002\nentropy = 3.124\nsamples = 39202\nvalue = [233, 6651, 5149, 1993, 5139, 2287, 4503, 3731, 5065, 4451]"] ;
0 -> 268 [labeldistance=2.5, labelangle=-45, headlabel="False"] ;
269 [label="X_303 <= 0.355\nentropy = 2.894\nsamples = 25010\nvalue = [34, 6618, 4117, 1649, 782, 1172, 1841, 3191, 4178, 1428]"] ;
268 -> 269 ;
270 [label="X_300 <= 0.002\nentropy = 2.844\nsamples = 12959\nvalue = [14, 344, 3243, 519, 637, 861, 1448, 2855, 2089, 949]"] ;
269 -> 270 ;
271 [label="X_135 <= 0.002\nentropy = 2.039\nsamples = 6865\nvalue = [4, 323, 3092, 414, 125, 46, 96, 2366, 141, 258]"] ;
270 -> 271 ;
272 [label="X_218 <= 0.004\nentropy = 1.949\nsamples = 2837\nvalue = [2, 292, 505, 52, 116, 23, 66, 1656, 25, 100]"] ;
271 -> 272 ;
273 [label="X_108 <= 0.004\nentropy = 2.261\nsamples = 916\nvalue = [1, 281, 352, 8, 112, 8, 58, 67, 5, 24]"] ;
272 -> 273 ;
274 [label="X_330 <= 0.051\nentropy = 2.337\nsamples = 641\nvalue = [1, 277, 107, 7, 110, 7, 39, 67, 2, 24]"] ;
273 -> 274 ;
275 [label="X_188 <= 0.094\nentropy = 2.39\nsamples = 303\nvalue = [1, 6, 81, 3, 103, 4, 29, 56, 2, 18]"] ;
274 -> 275 ;
276 [label="entropy = 1.902\nsamples = 199\nvalue = [1, 6, 79, 1, 81, 4, 22, 4, 1, 0]"] ;
275 -> 276 ;
277 [label="entropy = 1.958\nsamples = 104\nvalue = [0, 0, 2, 2, 22, 0, 7, 52, 1, 18]"] ;
275 -> 277 ;
278 [label="X_517 <= 0.335\nentropy = 1.207\nsamples = 338\nvalue = [0, 271, 26, 4, 7, 3, 10, 11, 0, 6]"] ;
274 -> 278 ;
279 [label="entropy = 1.666\nsamples = 105\nvalue = [0, 71, 1, 3, 7, 0, 6, 11, 0, 6]"] ;
278 -> 279 ;
280 [label="X_140 <= 0.722\nentropy = 0.75\nsamples = 233\nvalue = [0, 200, 25, 1, 0, 3, 4, 0, 0, 0]"] ;
278 -> 280 ;
281 [label="entropy = 1.094\nsamples = 100\nvalue = [0, 75, 18, 0, 0, 3, 4, 0, 0, 0]"] ;
280 -> 281 ;
282 [label="entropy = 0.361\nsamples = 133\nvalue = [0, 125, 7, 1, 0, 0, 0, 0, 0, 0]"] ;
280 -> 282 ;
283 [label="X_113 <= 0.192\nentropy = 0.685\nsamples = 275\nvalue = [0, 4, 245, 1, 2, 1, 19, 0, 3, 0]"] ;
273 -> 283 ;
284 [label="entropy = 1.174\nsamples = 100\nvalue = [0, 1, 74, 0, 2, 1, 19, 0, 3, 0]"] ;
283 -> 284 ;
285 [label="entropy = 0.176\nsamples = 175\nvalue = [0, 3, 171, 1, 0, 0, 0, 0, 0, 0]"] ;
283 -> 285 ;
286 [label="X_467 <= 0.361\nentropy = 1.049\nsamples = 1921\nvalue = [1, 11, 153, 44, 4, 15, 8, 1589, 20, 76]"] ;
272 -> 286 ;
287 [label="X_281 <= 0.004\nentropy = 2.318\nsamples = 285\nvalue = [0, 1, 57, 34, 2, 7, 7, 115, 10, 52]"] ;
286 -> 287 ;
288 [label="entropy = 2.104\nsamples = 157\nvalue = [0, 1, 35, 19, 1, 7, 5, 78, 1, 10]"] ;
287 -> 288 ;
289 [label="entropy = 2.262\nsamples = 128\nvalue = [0, 0, 22, 15, 1, 0, 2, 37, 9, 42]"] ;
287 -> 289 ;
290 [label="X_383 <= 0.01\nentropy = 0.662\nsamples = 1636\nvalue = [1, 10, 96, 10, 2, 8, 1, 1474, 10, 24]"] ;
286 -> 290 ;
291 [label="X_517 <= 0.516\nentropy = 0.342\nsamples = 1409\nvalue = [1, 8, 37, 4, 1, 3, 0, 1347, 0, 8]"] ;
290 -> 291 ;
292 [label="X_622 <= 0.004\nentropy = 0.217\nsamples = 1255\nvalue = [0, 6, 12, 4, 0, 1, 0, 1224, 0, 8]"] ;
291 -> 292 ;
293 [label="X_650 <= 0.004\nentropy = 0.387\nsamples = 516\nvalue = [0, 5, 12, 3, 0, 1, 0, 490, 0, 5]"] ;
292 -> 293 ;
294 [label="entropy = 1.216\nsamples = 104\nvalue = [0, 5, 12, 2, 0, 1, 0, 80, 0, 4]"] ;
293 -> 294 ;
295 [label="X_413 <= 0.971\nentropy = 0.049\nsamples = 412\nvalue = [0, 0, 0, 1, 0, 0, 0, 410, 0, 1]"] ;
293 -> 295 ;
296 [label="entropy = 0.16\nsamples = 101\nvalue = [0, 0, 0, 1, 0, 0, 0, 99, 0, 1]"] ;
295 -> 296 ;
297 [label="entropy = 0.0\nsamples = 311\nvalue = [0, 0, 0, 0, 0, 0, 0, 311, 0, 0]"] ;
295 -> 297 ;
298 [label="X_361 <= 0.786\nentropy = 0.068\nsamples = 739\nvalue = [0, 1, 0, 1, 0, 0, 0, 734, 0, 3]"] ;
292 -> 298 ;
299 [label="entropy = 0.215\nsamples = 136\nvalue = [0, 1, 0, 0, 0, 0, 0, 132, 0, 3]"] ;
298 -> 299 ;
300 [label="X_268 <= 0.861\nentropy = 0.018\nsamples = 603\nvalue = [0, 0, 0, 1, 0, 0, 0, 602, 0, 0]"] ;
298 -> 300 ;
301 [label="entropy = 0.0\nsamples = 503\nvalue = [0, 0, 0, 0, 0, 0, 0, 503, 0, 0]"] ;
300 -> 301 ;
302 [label="entropy = 0.081\nsamples = 100\nvalue = [0, 0, 0, 1, 0, 0, 0, 99, 0, 0]"] ;
300 -> 302 ;
303 [label="entropy = 0.942\nsamples = 154\nvalue = [1, 2, 25, 0, 1, 2, 0, 123, 0, 0]"] ;
291 -> 303 ;
304 [label="X_546 <= 0.343\nentropy = 1.831\nsamples = 227\nvalue = [0, 2, 59, 6, 1, 5, 1, 127, 10, 16]"] ;
290 -> 304 ;
305 [label="entropy = 1.87\nsamples = 127\nvalue = [0, 1, 52, 5, 1, 5, 0, 54, 4, 5]"] ;
304 -> 305 ;
306 [label="entropy = 1.393\nsamples = 100\nvalue = [0, 1, 7, 1, 0, 0, 1, 73, 6, 11]"] ;
304 -> 306 ;
307 [label="X_108 <= 0.002\nentropy = 1.669\nsamples = 4028\nvalue = [2, 31, 2587, 362, 9, 23, 30, 710, 116, 158]"] ;
271 -> 307 ;
308 [label="X_461 <= 0.006\nentropy = 2.08\nsamples = 1346\nvalue = [0, 12, 340, 122, 7, 13, 14, 645, 52, 141]"] ;
307 -> 308 ;
309 [label="X_491 <= 0.018\nentropy = 1.822\nsamples = 930\nvalue = [0, 12, 91, 104, 5, 13, 13, 593, 26, 73]"] ;
308 -> 309 ;
310 [label="X_498 <= 0.031\nentropy = 1.701\nsamples = 484\nvalue = [0, 6, 4, 97, 5, 12, 0, 288, 4, 68]"] ;
309 -> 310 ;
311 [label="X_185 <= 0.035\nentropy = 1.368\nsamples = 363\nvalue = [0, 5, 3, 26, 2, 8, 0, 266, 4, 49]"] ;
310 -> 311 ;
312 [label="entropy = 1.841\nsamples = 176\nvalue = [0, 5, 0, 16, 2, 8, 0, 96, 4, 45]"] ;
311 -> 312 ;
313 [label="entropy = 0.565\nsamples = 187\nvalue = [0, 0, 3, 10, 0, 0, 0, 170, 0, 4]"] ;
311 -> 313 ;
314 [label="entropy = 1.727\nsamples = 121\nvalue = [0, 1, 1, 71, 3, 4, 0, 22, 0, 19]"] ;
310 -> 314 ;
315 [label="X_596 <= 0.496\nentropy = 1.468\nsamples = 446\nvalue = [0, 6, 87, 7, 0, 1, 13, 305, 22, 5]"] ;
309 -> 315 ;
316 [label="X_306 <= 0.761\nentropy = 1.896\nsamples = 201\nvalue = [0, 5, 73, 6, 0, 0, 13, 89, 14, 1]"] ;
315 -> 316 ;
317 [label="entropy = 2.116\nsamples = 101\nvalue = [0, 4, 39, 4, 0, 0, 13, 32, 9, 0]"] ;
316 -> 317 ;
318 [label="entropy = 1.453\nsamples = 100\nvalue = [0, 1, 34, 2, 0, 0, 0, 57, 5, 1]"] ;
316 -> 318 ;
319 [label="X_621 <= 0.959\nentropy = 0.752\nsamples = 245\nvalue = [0, 1, 14, 1, 0, 1, 0, 216, 8, 4]"] ;
315 -> 319 ;
320 [label="entropy = 1.148\nsamples = 100\nvalue = [0, 1, 12, 1, 0, 0, 0, 77, 8, 1]"] ;
319 -> 320 ;
321 [label="entropy = 0.309\nsamples = 145\nvalue = [0, 0, 2, 0, 0, 1, 0, 139, 0, 3]"] ;
319 -> 321 ;
322 [label="X_541 <= 0.008\nentropy = 1.749\nsamples = 416\nvalue = [0, 0, 249, 18, 2, 0, 1, 52, 26, 68]"] ;
308 -> 322 ;
323 [label="entropy = 2.048\nsamples = 190\nvalue = [0, 0, 51, 12, 2, 0, 1, 51, 5, 68]"] ;
322 -> 323 ;
324 [label="X_471 <= 0.088\nentropy = 0.659\nsamples = 226\nvalue = [0, 0, 198, 6, 0, 0, 0, 1, 21, 0]"] ;
322 -> 324 ;
325 [label="entropy = 0.896\nsamples = 100\nvalue = [0, 0, 77, 1, 0, 0, 0, 1, 21, 0]"] ;
324 -> 325 ;
326 [label="entropy = 0.241\nsamples = 126\nvalue = [0, 0, 121, 5, 0, 0, 0, 0, 0, 0]"] ;
324 -> 326 ;
327 [label="X_490 <= 0.006\nentropy = 0.971\nsamples = 2682\nvalue = [2, 19, 2247, 240, 2, 10, 16, 65, 64, 17]"] ;
307 -> 327 ;
328 [label="X_492 <= 0.014\nentropy = 1.785\nsamples = 613\nvalue = [1, 13, 313, 208, 1, 10, 2, 37, 19, 9]"] ;
327 -> 328 ;
329 [label="X_305 <= 0.269\nentropy = 1.765\nsamples = 358\nvalue = [1, 9, 111, 195, 1, 10, 0, 14, 8, 9]"] ;
328 -> 329 ;
330 [label="entropy = 1.661\nsamples = 153\nvalue = [1, 3, 99, 30, 1, 10, 0, 2, 4, 3]"] ;
329 -> 330 ;
331 [label="X_623 <= 0.416\nentropy = 1.14\nsamples = 205\nvalue = [0, 6, 12, 165, 0, 0, 0, 12, 4, 6]"] ;
329 -> 331 ;
332 [label="entropy = 1.78\nsamples = 100\nvalue = [0, 5, 12, 62, 0, 0, 0, 12, 4, 5]"] ;
331 -> 332 ;
333 [label="entropy = 0.155\nsamples = 105\nvalue = [0, 1, 0, 103, 0, 0, 0, 0, 0, 1]"] ;
331 -> 333 ;
334 [label="X_432 <= 0.006\nentropy = 1.143\nsamples = 255\nvalue = [0, 4, 202, 13, 0, 0, 2, 23, 11, 0]"] ;
328 -> 334 ;
335 [label="entropy = 1.689\nsamples = 136\nvalue = [0, 4, 85, 13, 0, 0, 2, 22, 10, 0]"] ;
334 -> 335 ;
336 [label="entropy = 0.14\nsamples = 119\nvalue = [0, 0, 117, 0, 0, 0, 0, 1, 1, 0]"] ;
334 -> 336 ;
337 [label="X_513 <= 0.041\nentropy = 0.503\nsamples = 2069\nvalue = [1, 6, 1934, 32, 1, 0, 14, 28, 45, 8]"] ;
327 -> 337 ;
338 [label="X_79 <= 0.002\nentropy = 0.744\nsamples = 1069\nvalue = [0, 4, 953, 19, 1, 0, 14, 27, 44, 7]"] ;
337 -> 338 ;
339 [label="X_83 <= 0.002\nentropy = 1.086\nsamples = 593\nvalue = [0, 4, 486, 15, 1, 0, 10, 27, 43, 7]"] ;
338 -> 339 ;
340 [label="X_158 <= 0.314\nentropy = 1.539\nsamples = 270\nvalue = [0, 1, 186, 14, 0, 0, 4, 27, 31, 7]"] ;
339 -> 340 ;
341 [label="entropy = 1.782\nsamples = 102\nvalue = [0, 1, 50, 4, 0, 0, 0, 20, 26, 1]"] ;
340 -> 341 ;
342 [label="entropy = 1.131\nsamples = 168\nvalue = [0, 0, 136, 10, 0, 0, 4, 7, 5, 6]"] ;
340 -> 342 ;
343 [label="X_107 <= 0.5\nentropy = 0.497\nsamples = 323\nvalue = [0, 3, 300, 1, 1, 0, 6, 0, 12, 0]"] ;
339 -> 343 ;
344 [label="entropy = 0.907\nsamples = 110\nvalue = [0, 3, 92, 0, 1, 0, 4, 0, 10, 0]"] ;
343 -> 344 ;
345 [label="X_185 <= 0.014\nentropy = 0.196\nsamples = 213\nvalue = [0, 0, 208, 1, 0, 0, 2, 0, 2, 0]"] ;
343 -> 345 ;
346 [label="entropy = 0.128\nsamples = 113\nvalue = [0, 0, 111, 0, 0, 0, 0, 0, 2, 0]"] ;
345 -> 346 ;
347 [label="entropy = 0.222\nsamples = 100\nvalue = [0, 0, 97, 1, 0, 0, 2, 0, 0, 0]"] ;
345 -> 347 ;
348 [label="X_184 <= 0.702\nentropy = 0.162\nsamples = 476\nvalue = [0, 0, 467, 4, 0, 0, 4, 0, 1, 0]"] ;
338 -> 348 ;
349 [label="X_496 <= 0.535\nentropy = 0.094\nsamples = 376\nvalue = [0, 0, 372, 3, 0, 0, 0, 0, 1, 0]"] ;
348 -> 349 ;
350 [label="entropy = 0.177\nsamples = 174\nvalue = [0, 0, 170, 3, 0, 0, 0, 0, 1, 0]"] ;
349 -> 350 ;
351 [label="entropy = 0.0\nsamples = 202\nvalue = [0, 0, 202, 0, 0, 0, 0, 0, 0, 0]"] ;
349 -> 351 ;
352 [label="entropy = 0.322\nsamples = 100\nvalue = [0, 0, 95, 1, 0, 0, 4, 0, 0, 0]"] ;
348 -> 352 ;
353 [label="X_433 <= 0.022\nentropy = 0.166\nsamples = 1000\nvalue = [1, 2, 981, 13, 0, 0, 0, 1, 1, 1]"] ;
337 -> 353 ;
354 [label="X_462 <= 0.649\nentropy = 0.48\nsamples = 204\nvalue = [1, 1, 189, 11, 0, 0, 0, 0, 1, 1]"] ;
353 -> 354 ;
355 [label="entropy = 0.737\nsamples = 100\nvalue = [1, 1, 86, 11, 0, 0, 0, 0, 0, 1]"] ;
354 -> 355 ;
356 [label="entropy = 0.078\nsamples = 104\nvalue = [0, 0, 103, 0, 0, 0, 0, 0, 1, 0]"] ;
354 -> 356 ;
357 [label="X_442 <= 0.006\nentropy = 0.053\nsamples = 796\nvalue = [0, 1, 792, 2, 0, 0, 0, 1, 0, 0]"] ;
353 -> 357 ;
358 [label="entropy = 0.107\nsamples = 165\nvalue = [0, 1, 163, 0, 0, 0, 0, 1, 0, 0]"] ;
357 -> 358 ;
359 [label="X_356 <= 0.175\nentropy = 0.031\nsamples = 631\nvalue = [0, 0, 629, 2, 0, 0, 0, 0, 0, 0]"] ;
357 -> 359 ;
360 [label="entropy = 0.0\nsamples = 492\nvalue = [0, 0, 492, 0, 0, 0, 0, 0, 0, 0]"] ;
359 -> 360 ;
361 [label="entropy = 0.109\nsamples = 139\nvalue = [0, 0, 137, 2, 0, 0, 0, 0, 0, 0]"] ;
359 -> 361 ;
362 [label="X_333 <= 0.002\nentropy = 2.621\nsamples = 6094\nvalue = [10, 21, 151, 105, 512, 815, 1352, 489, 1948, 691]"] ;
270 -> 362 ;
363 [label="X_195 <= 0.018\nentropy = 1.998\nsamples = 1610\nvalue = [1, 12, 25, 71, 34, 759, 502, 8, 162, 36]"] ;
362 -> 363 ;
364 [label="X_602 <= 0.002\nentropy = 1.844\nsamples = 855\nvalue = [0, 12, 14, 41, 21, 232, 472, 2, 52, 9]"] ;
363 -> 364 ;
365 [label="X_435 <= 0.09\nentropy = 1.317\nsamples = 597\nvalue = [0, 9, 12, 10, 12, 81, 452, 2, 16, 3]"] ;
364 -> 365 ;
366 [label="entropy = 2.164\nsamples = 151\nvalue = [0, 9, 3, 10, 6, 73, 40, 2, 6, 2]"] ;
365 -> 366 ;
367 [label="X_524 <= 0.122\nentropy = 0.55\nsamples = 446\nvalue = [0, 0, 9, 0, 6, 8, 412, 0, 10, 1]"] ;
365 -> 367 ;
368 [label="entropy = 1.359\nsamples = 100\nvalue = [0, 0, 6, 0, 3, 6, 74, 0, 10, 1]"] ;
367 -> 368 ;
369 [label="X_491 <= 0.841\nentropy = 0.195\nsamples = 346\nvalue = [0, 0, 3, 0, 3, 2, 338, 0, 0, 0]"] ;
367 -> 369 ;
370 [label="entropy = 0.447\nsamples = 108\nvalue = [0, 0, 2, 0, 3, 2, 101, 0, 0, 0]"] ;
369 -> 370 ;
371 [label="X_444 <= 0.596\nentropy = 0.039\nsamples = 238\nvalue = [0, 0, 1, 0, 0, 0, 237, 0, 0, 0]"] ;
369 -> 371 ;
372 [label="entropy = 0.081\nsamples = 100\nvalue = [0, 0, 1, 0, 0, 0, 99, 0, 0, 0]"] ;
371 -> 372 ;
373 [label="entropy = 0.0\nsamples = 138\nvalue = [0, 0, 0, 0, 0, 0, 138, 0, 0, 0]"] ;
371 -> 373 ;
374 [label="X_216 <= 0.445\nentropy = 1.926\nsamples = 258\nvalue = [0, 3, 2, 31, 9, 151, 20, 0, 36, 6]"] ;
364 -> 374 ;
375 [label="entropy = 2.251\nsamples = 112\nvalue = [0, 3, 1, 29, 1, 42, 17, 0, 16, 3]"] ;
374 -> 375 ;
376 [label="entropy = 1.302\nsamples = 146\nvalue = [0, 0, 1, 2, 8, 109, 3, 0, 20, 3]"] ;
374 -> 376 ;
377 [label="X_171 <= 0.002\nentropy = 1.566\nsamples = 755\nvalue = [1, 0, 11, 30, 13, 527, 30, 6, 110, 27]"] ;
363 -> 377 ;
378 [label="X_274 <= 0.52\nentropy = 2.312\nsamples = 353\nvalue = [1, 0, 7, 28, 13, 150, 29, 6, 92, 27]"] ;
377 -> 378 ;
379 [label="X_544 <= 0.02\nentropy = 1.954\nsamples = 229\nvalue = [0, 0, 6, 0, 9, 100, 7, 4, 81, 22]"] ;
378 -> 379 ;
380 [label="entropy = 2.187\nsamples = 108\nvalue = [0, 0, 3, 0, 9, 45, 2, 4, 26, 19]"] ;
379 -> 380 ;
381 [label="entropy = 1.489\nsamples = 121\nvalue = [0, 0, 3, 0, 0, 55, 5, 0, 55, 3]"] ;
379 -> 381 ;
382 [label="entropy = 2.321\nsamples = 124\nvalue = [1, 0, 1, 28, 4, 50, 22, 2, 11, 5]"] ;
378 -> 382 ;
383 [label="X_247 <= 0.045\nentropy = 0.413\nsamples = 402\nvalue = [0, 0, 4, 2, 0, 377, 1, 0, 18, 0]"] ;
377 -> 383 ;
384 [label="entropy = 0.487\nsamples = 123\nvalue = [0, 0, 0, 0, 0, 110, 0, 0, 13, 0]"] ;
383 -> 384 ;
385 [label="X_227 <= 0.29\nentropy = 0.333\nsamples = 279\nvalue = [0, 0, 4, 2, 0, 267, 1, 0, 5, 0]"] ;
383 -> 385 ;
386 [label="entropy = 0.05\nsamples = 179\nvalue = [0, 0, 0, 0, 0, 178, 1, 0, 0, 0]"] ;
385 -> 386 ;
387 [label="entropy = 0.664\nsamples = 100\nvalue = [0, 0, 4, 2, 0, 89, 0, 0, 5, 0]"] ;
385 -> 387 ;
388 [label="X_600 <= 0.002\nentropy = 2.392\nsamples = 4484\nvalue = [9, 9, 126, 34, 478, 56, 850, 481, 1786, 655]"] ;
362 -> 388 ;
389 [label="X_390 <= 0.202\nentropy = 2.326\nsamples = 1877\nvalue = [4, 5, 105, 5, 264, 11, 835, 185, 186, 277]"] ;
388 -> 389 ;
390 [label="X_111 <= 0.004\nentropy = 2.598\nsamples = 993\nvalue = [2, 5, 75, 2, 184, 7, 130, 151, 168, 269]"] ;
389 -> 390 ;
391 [label="X_354 <= 0.01\nentropy = 2.361\nsamples = 744\nvalue = [0, 3, 14, 1, 155, 7, 61, 151, 96, 256]"] ;
390 -> 391 ;
392 [label="X_301 <= 0.216\nentropy = 1.827\nsamples = 206\nvalue = [0, 2, 7, 0, 10, 0, 4, 119, 41, 23]"] ;
391 -> 392 ;
393 [label="entropy = 0.645\nsamples = 100\nvalue = [0, 1, 5, 0, 2, 0, 0, 90, 0, 2]"] ;
392 -> 393 ;
394 [label="entropy = 2.136\nsamples = 106\nvalue = [0, 1, 2, 0, 8, 0, 4, 29, 41, 21]"] ;
392 -> 394 ;
395 [label="X_622 <= 0.21\nentropy = 2.151\nsamples = 538\nvalue = [0, 1, 7, 1, 145, 7, 57, 32, 55, 233]"] ;
391 -> 395 ;
396 [label="X_519 <= 0.004\nentropy = 2.193\nsamples = 360\nvalue = [0, 0, 7, 1, 118, 7, 57, 9, 37, 124]"] ;
395 -> 396 ;
397 [label="entropy = 1.469\nsamples = 196\nvalue = [0, 0, 1, 1, 83, 1, 0, 6, 7, 97]"] ;
396 -> 397 ;
398 [label="entropy = 2.337\nsamples = 164\nvalue = [0, 0, 6, 0, 35, 6, 57, 3, 30, 27]"] ;
396 -> 398 ;
399 [label="entropy = 1.604\nsamples = 178\nvalue = [0, 1, 0, 0, 27, 0, 0, 23, 18, 109]"] ;
395 -> 399 ;
400 [label="X_354 <= 0.004\nentropy = 2.255\nsamples = 249\nvalue = [2, 2, 61, 1, 29, 0, 69, 0, 72, 13]"] ;
390 -> 400 ;
401 [label="entropy = 1.522\nsamples = 100\nvalue = [1, 2, 51, 0, 1, 0, 4, 0, 40, 1]"] ;
400 -> 401 ;
402 [label="entropy = 2.103\nsamples = 149\nvalue = [1, 0, 10, 1, 28, 0, 65, 0, 32, 12]"] ;
400 -> 402 ;
403 [label="X_251 <= 0.082\nentropy = 1.179\nsamples = 884\nvalue = [2, 0, 30, 3, 80, 4, 705, 34, 18, 8]"] ;
389 -> 403 ;
404 [label="X_547 <= 0.135\nentropy = 0.581\nsamples = 735\nvalue = [1, 0, 3, 2, 22, 4, 678, 6, 15, 4]"] ;
403 -> 404 ;
405 [label="entropy = 1.469\nsamples = 101\nvalue = [0, 0, 1, 1, 22, 1, 67, 4, 5, 0]"] ;
404 -> 405 ;
406 [label="X_59 <= 0.004\nentropy = 0.31\nsamples = 634\nvalue = [1, 0, 2, 1, 0, 3, 611, 2, 10, 4]"] ;
404 -> 406 ;
407 [label="X_357 <= 0.21\nentropy = 0.497\nsamples = 259\nvalue = [1, 0, 2, 0, 0, 0, 241, 2, 9, 4]"] ;
406 -> 407 ;
408 [label="entropy = 0.216\nsamples = 151\nvalue = [0, 0, 1, 0, 0, 0, 147, 2, 1, 0]"] ;
407 -> 408 ;
409 [label="entropy = 0.754\nsamples = 108\nvalue = [1, 0, 1, 0, 0, 0, 94, 0, 8, 4]"] ;
407 -> 409 ;
410 [label="X_217 <= 0.804\nentropy = 0.12\nsamples = 375\nvalue = [0, 0, 0, 1, 0, 3, 370, 0, 1, 0]"] ;
406 -> 410 ;
411 [label="entropy = 0.273\nsamples = 101\nvalue = [0, 0, 0, 0, 0, 3, 97, 0, 1, 0]"] ;
410 -> 411 ;
412 [label="X_462 <= 0.739\nentropy = 0.035\nsamples = 274\nvalue = [0, 0, 0, 1, 0, 0, 273, 0, 0, 0]"] ;
410 -> 412 ;
413 [label="entropy = 0.0\nsamples = 174\nvalue = [0, 0, 0, 0, 0, 0, 174, 0, 0, 0]"] ;
412 -> 413 ;
414 [label="entropy = 0.081\nsamples = 100\nvalue = [0, 0, 0, 1, 0, 0, 99, 0, 0, 0]"] ;
412 -> 414 ;
415 [label="entropy = 2.227\nsamples = 149\nvalue = [1, 0, 27, 1, 58, 0, 27, 28, 3, 4]"] ;
403 -> 415 ;
416 [label="X_110 <= 0.002\nentropy = 1.792\nsamples = 2607\nvalue = [5, 4, 21, 29, 214, 45, 15, 296, 1600, 378]"] ;
388 -> 416 ;
417 [label="X_355 <= 0.014\nentropy = 2.12\nsamples = 1270\nvalue = [1, 3, 4, 11, 182, 10, 3, 293, 405, 358]"] ;
416 -> 417 ;
418 [label="X_520 <= 0.743\nentropy = 1.259\nsamples = 342\nvalue = [0, 1, 3, 9, 5, 0, 0, 252, 58, 14]"] ;
417 -> 418 ;
419 [label="entropy = 1.866\nsamples = 105\nvalue = [0, 0, 3, 8, 3, 0, 0, 40, 45, 6]"] ;
418 -> 419 ;
420 [label="X_270 <= 0.953\nentropy = 0.663\nsamples = 237\nvalue = [0, 1, 0, 1, 2, 0, 0, 212, 13, 8]"] ;
418 -> 420 ;
421 [label="entropy = 1.121\nsamples = 100\nvalue = [0, 1, 0, 0, 2, 0, 0, 77, 13, 7]"] ;
420 -> 421 ;
422 [label="entropy = 0.125\nsamples = 137\nvalue = [0, 0, 0, 1, 0, 0, 0, 135, 0, 1]"] ;
420 -> 422 ;
423 [label="X_490 <= 0.002\nentropy = 1.873\nsamples = 928\nvalue = [1, 2, 1, 2, 177, 10, 3, 41, 347, 344]"] ;
417 -> 423 ;
424 [label="X_163 <= 0.229\nentropy = 1.709\nsamples = 627\nvalue = [0, 2, 0, 2, 172, 8, 0, 39, 64, 340]"] ;
423 -> 424 ;
425 [label="entropy = 1.205\nsamples = 187\nvalue = [0, 0, 0, 0, 139, 2, 0, 13, 5, 28]"] ;
424 -> 425 ;
426 [label="X_550 <= 0.12\nentropy = 1.417\nsamples = 440\nvalue = [0, 2, 0, 2, 33, 6, 0, 26, 59, 312]"] ;
424 -> 426 ;
427 [label="X_468 <= 0.99\nentropy = 1.183\nsamples = 338\nvalue = [0, 2, 0, 0, 29, 0, 0, 22, 26, 259]"] ;
426 -> 427 ;
428 [label="entropy = 1.504\nsamples = 180\nvalue = [0, 2, 0, 0, 19, 0, 0, 15, 25, 119]"] ;
427 -> 428 ;
429 [label="entropy = 0.652\nsamples = 158\nvalue = [0, 0, 0, 0, 10, 0, 0, 7, 1, 140]"] ;
427 -> 429 ;
430 [label="entropy = 1.736\nsamples = 102\nvalue = [0, 0, 0, 2, 4, 6, 0, 4, 33, 53]"] ;
426 -> 430 ;
431 [label="X_622 <= 0.239\nentropy = 0.482\nsamples = 301\nvalue = [1, 0, 1, 0, 5, 2, 3, 2, 283, 4]"] ;
423 -> 431 ;
432 [label="entropy = 1.011\nsamples = 100\nvalue = [1, 0, 1, 0, 5, 2, 3, 0, 84, 4]"] ;
431 -> 432 ;
433 [label="X_328 <= 0.959\nentropy = 0.08\nsamples = 201\nvalue = [0, 0, 0, 0, 0, 0, 0, 2, 199, 0]"] ;
431 -> 433 ;
434 [label="entropy = 0.141\nsamples = 100\nvalue = [0, 0, 0, 0, 0, 0, 0, 2, 98, 0]"] ;
433 -> 434 ;
435 [label="entropy = 0.0\nsamples = 101\nvalue = [0, 0, 0, 0, 0, 0, 0, 0, 101, 0]"] ;
433 -> 435 ;
436 [label="X_411 <= 0.72\nentropy = 0.779\nsamples = 1337\nvalue = [4, 1, 17, 18, 32, 35, 12, 3, 1195, 20]"] ;
416 -> 436 ;
437 [label="X_280 <= 0.229\nentropy = 1.958\nsamples = 221\nvalue = [3, 1, 6, 12, 14, 23, 7, 2, 140, 13]"] ;
436 -> 437 ;
438 [label="entropy = 2.345\nsamples = 100\nvalue = [0, 1, 2, 7, 6, 23, 6, 2, 45, 8]"] ;
437 -> 438 ;
439 [label="entropy = 1.265\nsamples = 121\nvalue = [3, 0, 4, 5, 8, 0, 1, 0, 95, 5]"] ;
437 -> 439 ;
440 [label="X_197 <= 0.131\nentropy = 0.448\nsamples = 1116\nvalue = [1, 0, 11, 6, 18, 12, 5, 1, 1055, 7]"] ;
436 -> 440 ;
441 [label="X_138 <= 0.582\nentropy = 0.854\nsamples = 415\nvalue = [1, 0, 7, 4, 16, 12, 4, 1, 364, 6]"] ;
440 -> 441 ;
442 [label="entropy = 1.186\nsamples = 112\nvalue = [1, 0, 3, 2, 15, 5, 0, 0, 86, 0]"] ;
441 -> 442 ;
443 [label="X_251 <= 0.071\nentropy = 0.619\nsamples = 303\nvalue = [0, 0, 4, 2, 1, 7, 4, 1, 278, 6]"] ;
441 -> 443 ;
444 [label="entropy = 0.683\nsamples = 100\nvalue = [0, 0, 0, 1, 0, 7, 4, 0, 88, 0]"] ;
443 -> 444 ;
445 [label="X_329 <= 0.643\nentropy = 0.464\nsamples = 203\nvalue = [0, 0, 4, 1, 1, 0, 0, 1, 190, 6]"] ;
443 -> 445 ;
446 [label="entropy = 0.803\nsamples = 100\nvalue = [0, 0, 4, 1, 1, 0, 0, 1, 87, 6]"] ;
445 -> 446 ;
447 [label="entropy = 0.0\nsamples = 103\nvalue = [0, 0, 0, 0, 0, 0, 0, 0, 103, 0]"] ;
445 -> 447 ;
448 [label="X_547 <= 0.9\nentropy = 0.138\nsamples = 701\nvalue = [0, 0, 4, 2, 2, 0, 1, 0, 691, 1]"] ;
440 -> 448 ;
449 [label="X_389 <= 0.057\nentropy = 0.055\nsamples = 542\nvalue = [0, 0, 0, 0, 2, 0, 1, 0, 539, 0]"] ;
448 -> 449 ;
450 [label="entropy = 0.0\nsamples = 442\nvalue = [0, 0, 0, 0, 0, 0, 0, 0, 442, 0]"] ;
449 -> 450 ;
451 [label="entropy = 0.222\nsamples = 100\nvalue = [0, 0, 0, 0, 2, 0, 1, 0, 97, 0]"] ;
449 -> 451 ;
452 [label="entropy = 0.321\nsamples = 159\nvalue = [0, 0, 4, 2, 0, 0, 0, 0, 152, 1]"] ;
448 -> 452 ;
453 [label="X_159 <= 0.002\nentropy = 2.241\nsamples = 12051\nvalue = [20, 6274, 874, 1130, 145, 311, 393, 336, 2089, 479]"] ;
269 -> 453 ;
454 [label="X_355 <= 0.163\nentropy = 1.732\nsamples = 8859\nvalue = [16, 6102, 257, 293, 94, 271, 361, 111, 987, 367]"] ;
453 -> 454 ;
455 [label="X_252 <= 0.084\nentropy = 1.067\nsamples = 6856\nvalue = [1, 5691, 172, 107, 17, 104, 33, 95, 529, 107]"] ;
454 -> 455 ;
456 [label="X_105 <= 0.212\nentropy = 0.703\nsamples = 5867\nvalue = [0, 5307, 152, 58, 12, 80, 27, 36, 158, 37]"] ;
455 -> 456 ;
457 [label="X_387 <= 0.661\nentropy = 0.606\nsamples = 5727\nvalue = [0, 5277, 70, 40, 12, 80, 27, 34, 151, 36]"] ;
456 -> 457 ;
458 [label="X_442 <= 0.01\nentropy = 0.403\nsamples = 5204\nvalue = [0, 4953, 53, 17, 6, 48, 15, 21, 81, 10]"] ;
457 -> 458 ;
459 [label="X_542 <= 0.135\nentropy = 0.273\nsamples = 5030\nvalue = [0, 4875, 27, 4, 6, 36, 6, 8, 58, 10]"] ;
458 -> 459 ;
460 [label="X_410 <= 0.61\nentropy = 0.204\nsamples = 4591\nvalue = [0, 4491, 16, 2, 6, 9, 4, 8, 45, 10]"] ;
459 -> 460 ;
461 [label="X_277 <= 0.649\nentropy = 0.133\nsamples = 3004\nvalue = [0, 2964, 0, 1, 6, 4, 0, 8, 11, 10]"] ;
460 -> 461 ;
462 [label="X_301 <= 0.257\nentropy = 0.059\nsamples = 2213\nvalue = [0, 2201, 0, 0, 4, 3, 0, 1, 4, 0]"] ;
461 -> 462 ;
463 [label="X_245 <= 0.341\nentropy = 0.018\nsamples = 1933\nvalue = [0, 1930, 0, 0, 0, 0, 0, 1, 2, 0]"] ;
462 -> 463 ;
464 [label="X_356 <= 0.225\nentropy = 0.007\nsamples = 1833\nvalue = [0, 1832, 0, 0, 0, 0, 0, 0, 1, 0]"] ;
463 -> 464 ;
465 [label="entropy = 0.0\nsamples = 1733\nvalue = [0, 1733, 0, 0, 0, 0, 0, 0, 0, 0]"] ;
464 -> 465 ;
466 [label="entropy = 0.081\nsamples = 100\nvalue = [0, 99, 0, 0, 0, 0, 0, 0, 1, 0]"] ;
464 -> 466 ;
467 [label="entropy = 0.161\nsamples = 100\nvalue = [0, 98, 0, 0, 0, 0, 0, 1, 1, 0]"] ;
463 -> 467 ;
468 [label="X_466 <= 0.845\nentropy = 0.254\nsamples = 280\nvalue = [0, 271, 0, 0, 4, 3, 0, 0, 2, 0]"] ;
462 -> 468 ;
469 [label="entropy = 0.399\nsamples = 125\nvalue = [0, 118, 0, 0, 2, 3, 0, 0, 2, 0]"] ;
468 -> 469 ;
470 [label="entropy = 0.099\nsamples = 155\nvalue = [0, 153, 0, 0, 2, 0, 0, 0, 0, 0]"] ;
468 -> 470 ;
471 [label="X_111 <= 0.002\nentropy = 0.297\nsamples = 791\nvalue = [0, 763, 0, 1, 2, 1, 0, 7, 7, 10]"] ;
461 -> 471 ;
472 [label="entropy = 0.894\nsamples = 151\nvalue = [0, 129, 0, 1, 1, 1, 0, 6, 3, 10]"] ;
471 -> 472 ;
473 [label="X_546 <= 0.555\nentropy = 0.088\nsamples = 640\nvalue = [0, 634, 0, 0, 1, 0, 0, 1, 4, 0]"] ;
471 -> 473 ;
474 [label="entropy = 0.282\nsamples = 119\nvalue = [0, 114, 0, 0, 1, 0, 0, 0, 4, 0]"] ;
473 -> 474 ;
475 [label="X_304 <= 0.994\nentropy = 0.02\nsamples = 521\nvalue = [0, 520, 0, 0, 0, 0, 0, 1, 0, 0]"] ;
473 -> 475 ;
476 [label="X_137 <= 0.986\nentropy = 0.033\nsamples = 288\nvalue = [0, 287, 0, 0, 0, 0, 0, 1, 0, 0]"] ;
475 -> 476 ;
477 [label="entropy = 0.073\nsamples = 114\nvalue = [0, 113, 0, 0, 0, 0, 0, 1, 0, 0]"] ;
476 -> 477 ;
478 [label="entropy = 0.0\nsamples = 174\nvalue = [0, 174, 0, 0, 0, 0, 0, 0, 0, 0]"] ;
476 -> 478 ;
479 [label="entropy = 0.0\nsamples = 233\nvalue = [0, 233, 0, 0, 0, 0, 0, 0, 0, 0]"] ;
475 -> 479 ;
480 [label="X_161 <= 0.031\nentropy = 0.294\nsamples = 1587\nvalue = [0, 1527, 16, 1, 0, 5, 4, 0, 34, 0]"] ;
460 -> 480 ;
481 [label="X_276 <= 0.841\nentropy = 0.183\nsamples = 1459\nvalue = [0, 1429, 9, 0, 0, 5, 4, 0, 12, 0]"] ;
480 -> 481 ;
482 [label="entropy = 1.006\nsamples = 117\nvalue = [0, 96, 3, 0, 0, 4, 4, 0, 10, 0]"] ;
481 -> 482 ;
483 [label="X_576 <= 0.006\nentropy = 0.066\nsamples = 1342\nvalue = [0, 1333, 6, 0, 0, 1, 0, 0, 2, 0]"] ;
481 -> 483 ;
484 [label="X_84 <= 0.753\nentropy = 0.02\nsamples = 1174\nvalue = [0, 1172, 1, 0, 0, 1, 0, 0, 0, 0]"] ;
483 -> 484 ;
485 [label="X_166 <= 0.49\nentropy = 0.011\nsamples = 1074\nvalue = [0, 1073, 0, 0, 0, 1, 0, 0, 0, 0]"] ;
484 -> 485 ;
486 [label="entropy = 0.081\nsamples = 100\nvalue = [0, 99, 0, 0, 0, 1, 0, 0, 0, 0]"] ;
485 -> 486 ;
487 [label="entropy = 0.0\nsamples = 974\nvalue = [0, 974, 0, 0, 0, 0, 0, 0, 0, 0]"] ;
485 -> 487 ;
488 [label="entropy = 0.081\nsamples = 100\nvalue = [0, 99, 1, 0, 0, 0, 0, 0, 0, 0]"] ;
484 -> 488 ;
489 [label="entropy = 0.286\nsamples = 168\nvalue = [0, 161, 5, 0, 0, 0, 0, 0, 2, 0]"] ;
483 -> 489 ;
490 [label="entropy = 1.016\nsamples = 128\nvalue = [0, 98, 7, 1, 0, 0, 0, 0, 22, 0]"] ;
480 -> 490 ;
491 [label="X_440 <= 0.037\nentropy = 0.771\nsamples = 439\nvalue = [0, 384, 11, 2, 0, 27, 2, 0, 13, 0]"] ;
459 -> 491 ;
492 [label="X_488 <= 0.057\nentropy = 0.302\nsamples = 337\nvalue = [0, 323, 8, 0, 0, 5, 1, 0, 0, 0]"] ;
491 -> 492 ;
493 [label="X_595 <= 0.661\nentropy = 0.07\nsamples = 237\nvalue = [0, 235, 2, 0, 0, 0, 0, 0, 0, 0]"] ;
492 -> 493 ;
494 [label="entropy = 0.141\nsamples = 100\nvalue = [0, 98, 2, 0, 0, 0, 0, 0, 0, 0]"] ;
493 -> 494 ;
495 [label="entropy = 0.0\nsamples = 137\nvalue = [0, 137, 0, 0, 0, 0, 0, 0, 0, 0]"] ;
493 -> 495 ;
496 [label="entropy = 0.688\nsamples = 100\nvalue = [0, 88, 6, 0, 0, 5, 1, 0, 0, 0]"] ;
492 -> 496 ;
497 [label="entropy = 1.626\nsamples = 102\nvalue = [0, 61, 3, 2, 0, 22, 1, 0, 13, 0]"] ;
491 -> 497 ;
498 [label="entropy = 2.361\nsamples = 174\nvalue = [0, 78, 26, 13, 0, 12, 9, 13, 23, 0]"] ;
458 -> 498 ;
499 [label="X_216 <= 0.116\nentropy = 1.968\nsamples = 523\nvalue = [0, 324, 17, 23, 6, 32, 12, 13, 70, 26]"] ;
457 -> 499 ;
500 [label="X_543 <= 0.004\nentropy = 1.455\nsamples = 391\nvalue = [0, 295, 6, 18, 5, 18, 12, 3, 29, 5]"] ;
499 -> 500 ;
501 [label="X_491 <= 0.094\nentropy = 0.852\nsamples = 283\nvalue = [0, 250, 3, 2, 5, 3, 9, 3, 4, 4]"] ;
500 -> 501 ;
502 [label="entropy = 0.533\nsamples = 179\nvalue = [0, 166, 0, 2, 4, 0, 1, 2, 0, 4]"] ;
501 -> 502 ;
503 [label="entropy = 1.138\nsamples = 104\nvalue = [0, 84, 3, 0, 1, 3, 8, 1, 4, 0]"] ;
501 -> 503 ;
504 [label="entropy = 2.168\nsamples = 108\nvalue = [0, 45, 3, 16, 0, 15, 3, 0, 25, 1]"] ;
500 -> 504 ;
505 [label="entropy = 2.583\nsamples = 132\nvalue = [0, 29, 11, 5, 1, 14, 0, 10, 41, 21]"] ;
499 -> 505 ;
506 [label="entropy = 1.663\nsamples = 140\nvalue = [0, 30, 82, 18, 0, 0, 0, 2, 7, 1]"] ;
456 -> 506 ;
507 [label="X_137 <= 0.116\nentropy = 2.126\nsamples = 989\nvalue = [1, 384, 20, 49, 5, 24, 6, 59, 371, 70]"] ;
455 -> 507 ;
508 [label="X_464 <= 0.739\nentropy = 1.685\nsamples = 452\nvalue = [0, 306, 3, 4, 5, 22, 6, 57, 30, 19]"] ;
507 -> 508 ;
509 [label="entropy = 2.403\nsamples = 113\nvalue = [0, 4, 1, 4, 4, 14, 2, 49, 16, 19]"] ;
508 -> 509 ;
510 [label="X_140 <= 0.788\nentropy = 0.738\nsamples = 339\nvalue = [0, 302, 2, 0, 1, 8, 4, 8, 14, 0]"] ;
508 -> 510 ;
511 [label="entropy = 1.639\nsamples = 100\nvalue = [0, 67, 1, 0, 1, 8, 4, 8, 11, 0]"] ;
510 -> 511 ;
512 [label="X_546 <= 0.237\nentropy = 0.136\nsamples = 239\nvalue = [0, 235, 1, 0, 0, 0, 0, 0, 3, 0]"] ;
510 -> 512 ;
513 [label="entropy = 0.062\nsamples = 139\nvalue = [0, 138, 0, 0, 0, 0, 0, 0, 1, 0]"] ;
512 -> 513 ;
514 [label="entropy = 0.222\nsamples = 100\nvalue = [0, 97, 1, 0, 0, 0, 0, 0, 2, 0]"] ;
512 -> 514 ;
515 [label="X_249 <= 0.978\nentropy = 1.677\nsamples = 537\nvalue = [1, 78, 17, 45, 0, 2, 0, 2, 341, 51]"] ;
507 -> 515 ;
516 [label="X_436 <= 0.325\nentropy = 1.165\nsamples = 424\nvalue = [1, 1, 14, 32, 0, 2, 0, 1, 329, 44]"] ;
515 -> 516 ;
517 [label="entropy = 1.791\nsamples = 100\nvalue = [1, 0, 1, 28, 0, 2, 0, 0, 26, 42]"] ;
516 -> 517 ;
518 [label="X_329 <= 0.876\nentropy = 0.452\nsamples = 324\nvalue = [0, 1, 13, 4, 0, 0, 0, 1, 303, 2]"] ;
516 -> 518 ;
519 [label="entropy = 0.801\nsamples = 120\nvalue = [0, 0, 13, 2, 0, 0, 0, 1, 102, 2]"] ;
518 -> 519 ;
520 [label="X_246 <= 0.959\nentropy = 0.124\nsamples = 204\nvalue = [0, 1, 0, 2, 0, 0, 0, 0, 201, 0]"] ;
518 -> 520 ;
521 [label="entropy = 0.222\nsamples = 100\nvalue = [0, 1, 0, 2, 0, 0, 0, 0, 97, 0]"] ;
520 -> 521 ;
522 [label="entropy = 0.0\nsamples = 104\nvalue = [0, 0, 0, 0, 0, 0, 0, 0, 104, 0]"] ;
520 -> 522 ;
523 [label="entropy = 1.527\nsamples = 113\nvalue = [0, 77, 3, 13, 0, 0, 0, 1, 12, 7]"] ;
515 -> 523 ;
524 [label="X_434 <= 0.002\nentropy = 2.865\nsamples = 2003\nvalue = [15, 411, 85, 186, 77, 167, 328, 16, 458, 260]"] ;
454 -> 524 ;
525 [label="X_436 <= 0.198\nentropy = 2.709\nsamples = 967\nvalue = [0, 202, 3, 160, 51, 116, 75, 11, 92, 257]"] ;
524 -> 525 ;
526 [label="X_108 <= 0.004\nentropy = 2.247\nsamples = 608\nvalue = [0, 48, 0, 148, 44, 102, 0, 8, 17, 241]"] ;
525 -> 526 ;
527 [label="X_515 <= 0.053\nentropy = 1.956\nsamples = 440\nvalue = [0, 17, 0, 36, 31, 95, 0, 8, 13, 240]"] ;
526 -> 527 ;
528 [label="X_361 <= 0.3\nentropy = 1.549\nsamples = 334\nvalue = [0, 16, 0, 14, 30, 15, 0, 8, 11, 240]"] ;
527 -> 528 ;
529 [label="entropy = 2.154\nsamples = 108\nvalue = [0, 14, 0, 9, 5, 15, 0, 4, 5, 56]"] ;
528 -> 529 ;
530 [label="X_384 <= 0.363\nentropy = 1.017\nsamples = 226\nvalue = [0, 2, 0, 5, 25, 0, 0, 4, 6, 184]"] ;
528 -> 530 ;
531 [label="entropy = 0.624\nsamples = 126\nvalue = [0, 1, 0, 1, 11, 0, 0, 0, 1, 112]"] ;
530 -> 531 ;
532 [label="entropy = 1.392\nsamples = 100\nvalue = [0, 1, 0, 4, 14, 0, 0, 4, 5, 72]"] ;
530 -> 532 ;
533 [label="entropy = 1.012\nsamples = 106\nvalue = [0, 1, 0, 22, 1, 80, 0, 0, 2, 0]"] ;
527 -> 533 ;
534 [label="entropy = 1.489\nsamples = 168\nvalue = [0, 31, 0, 112, 13, 7, 0, 0, 4, 1]"] ;
526 -> 534 ;
535 [label="X_222 <= 0.031\nentropy = 2.24\nsamples = 359\nvalue = [0, 154, 3, 12, 7, 14, 75, 3, 75, 16]"] ;
525 -> 535 ;
536 [label="entropy = 1.893\nsamples = 108\nvalue = [0, 20, 3, 4, 2, 4, 65, 0, 7, 3]"] ;
535 -> 536 ;
537 [label="X_520 <= 0.978\nentropy = 1.933\nsamples = 251\nvalue = [0, 134, 0, 8, 5, 10, 10, 3, 68, 13]"] ;
535 -> 537 ;
538 [label="entropy = 2.094\nsamples = 142\nvalue = [0, 45, 0, 5, 5, 6, 4, 2, 64, 11]"] ;
537 -> 538 ;
539 [label="entropy = 1.13\nsamples = 109\nvalue = [0, 89, 0, 3, 0, 4, 6, 1, 4, 2]"] ;
537 -> 539 ;
540 [label="X_523 <= 0.004\nentropy = 2.413\nsamples = 1036\nvalue = [15, 209, 82, 26, 26, 51, 253, 5, 366, 3]"] ;
524 -> 540 ;
541 [label="X_249 <= 0.812\nentropy = 2.242\nsamples = 467\nvalue = [8, 199, 41, 3, 13, 36, 27, 4, 135, 1]"] ;
540 -> 541 ;
542 [label="entropy = 2.043\nsamples = 186\nvalue = [4, 6, 19, 1, 10, 15, 20, 2, 109, 0]"] ;
541 -> 542 ;
543 [label="X_140 <= 0.694\nentropy = 1.678\nsamples = 281\nvalue = [4, 193, 22, 2, 3, 21, 7, 2, 26, 1]"] ;
541 -> 543 ;
544 [label="entropy = 2.287\nsamples = 100\nvalue = [1, 41, 22, 1, 2, 21, 2, 2, 7, 1]"] ;
543 -> 544 ;
545 [label="entropy = 0.877\nsamples = 181\nvalue = [3, 152, 0, 1, 1, 0, 5, 0, 19, 0]"] ;
543 -> 545 ;
546 [label="X_600 <= 0.008\nentropy = 2.006\nsamples = 569\nvalue = [7, 10, 41, 23, 13, 15, 226, 1, 231, 2]"] ;
540 -> 546 ;
547 [label="X_443 <= 0.586\nentropy = 1.417\nsamples = 287\nvalue = [1, 3, 37, 9, 7, 9, 212, 0, 8, 1]"] ;
546 -> 547 ;
548 [label="entropy = 2.089\nsamples = 101\nvalue = [0, 3, 29, 3, 2, 8, 47, 0, 8, 1]"] ;
547 -> 548 ;
549 [label="entropy = 0.73\nsamples = 186\nvalue = [1, 0, 8, 6, 5, 1, 165, 0, 0, 0]"] ;
547 -> 549 ;
550 [label="X_275 <= 0.767\nentropy = 1.33\nsamples = 282\nvalue = [6, 7, 4, 14, 6, 6, 14, 1, 223, 1]"] ;
546 -> 550 ;
551 [label="entropy = 0.745\nsamples = 138\nvalue = [0, 0, 3, 13, 3, 0, 0, 0, 119, 0]"] ;
550 -> 551 ;
552 [label="entropy = 1.576\nsamples = 144\nvalue = [6, 7, 1, 1, 3, 6, 14, 1, 104, 1]"] ;
550 -> 552 ;
553 [label="X_463 <= 0.006\nentropy = 2.414\nsamples = 3192\nvalue = [4, 172, 617, 837, 51, 40, 32, 225, 1102, 112]"] ;
453 -> 553 ;
554 [label="X_597 <= 0.057\nentropy = 2.36\nsamples = 1572\nvalue = [2, 163, 65, 744, 46, 35, 3, 161, 246, 107]"] ;
553 -> 554 ;
555 [label="X_107 <= 0.039\nentropy = 2.692\nsamples = 819\nvalue = [0, 157, 47, 170, 37, 9, 3, 124, 196, 76]"] ;
554 -> 555 ;
556 [label="X_298 <= 0.043\nentropy = 2.578\nsamples = 409\nvalue = [0, 21, 13, 93, 32, 4, 1, 119, 50, 76]"] ;
555 -> 556 ;
557 [label="X_525 <= 0.075\nentropy = 2.162\nsamples = 258\nvalue = [0, 21, 13, 88, 4, 2, 1, 104, 17, 8]"] ;
556 -> 557 ;
558 [label="entropy = 1.84\nsamples = 150\nvalue = [0, 8, 3, 26, 4, 0, 0, 91, 10, 8]"] ;
557 -> 558 ;
559 [label="entropy = 1.938\nsamples = 108\nvalue = [0, 13, 10, 62, 0, 2, 1, 13, 7, 0]"] ;
557 -> 559 ;
560 [label="entropy = 2.025\nsamples = 151\nvalue = [0, 0, 0, 5, 28, 2, 0, 15, 33, 68]"] ;
556 -> 560 ;
561 [label="X_166 <= 0.004\nentropy = 2.08\nsamples = 410\nvalue = [0, 136, 34, 77, 5, 5, 2, 5, 146, 0]"] ;
555 -> 561 ;
562 [label="X_217 <= 0.708\nentropy = 1.784\nsamples = 234\nvalue = [0, 133, 22, 34, 1, 1, 1, 2, 40, 0]"] ;
561 -> 562 ;
563 [label="entropy = 2.211\nsamples = 114\nvalue = [0, 20, 22, 29, 1, 1, 1, 2, 38, 0]"] ;
562 -> 563 ;
564 [label="entropy = 0.371\nsamples = 120\nvalue = [0, 113, 0, 5, 0, 0, 0, 0, 2, 0]"] ;
562 -> 564 ;
565 [label="entropy = 1.692\nsamples = 176\nvalue = [0, 3, 12, 43, 4, 4, 1, 3, 106, 0]"] ;
561 -> 565 ;
566 [label="X_272 <= 0.18\nentropy = 1.412\nsamples = 753\nvalue = [2, 6, 18, 574, 9, 26, 0, 37, 50, 31]"] ;
554 -> 566 ;
567 [label="X_301 <= 0.002\nentropy = 0.682\nsamples = 556\nvalue = [2, 6, 17, 502, 1, 0, 0, 17, 9, 2]"] ;
566 -> 567 ;
568 [label="entropy = 1.074\nsamples = 175\nvalue = [0, 6, 17, 137, 0, 0, 0, 15, 0, 0]"] ;
567 -> 568 ;
569 [label="X_471 <= 0.227\nentropy = 0.329\nsamples = 381\nvalue = [2, 0, 0, 365, 1, 0, 0, 2, 9, 2]"] ;
567 -> 569 ;
570 [label="entropy = 0.778\nsamples = 101\nvalue = [2, 0, 0, 89, 1, 0, 0, 2, 5, 2]"] ;
569 -> 570 ;
571 [label="X_223 <= 0.688\nentropy = 0.108\nsamples = 280\nvalue = [0, 0, 0, 276, 0, 0, 0, 0, 4, 0]"] ;
569 -> 571 ;
572 [label="entropy = 0.242\nsamples = 100\nvalue = [0, 0, 0, 96, 0, 0, 0, 0, 4, 0]"] ;
571 -> 572 ;
573 [label="entropy = 0.0\nsamples = 180\nvalue = [0, 0, 0, 180, 0, 0, 0, 0, 0, 0]"] ;
571 -> 573 ;
574 [label="entropy = 2.356\nsamples = 197\nvalue = [0, 0, 1, 72, 8, 26, 0, 20, 41, 29]"] ;
566 -> 574 ;
575 [label="X_301 <= 0.092\nentropy = 1.671\nsamples = 1620\nvalue = [2, 9, 552, 93, 5, 5, 29, 64, 856, 5]"] ;
553 -> 575 ;
576 [label="X_528 <= 0.004\nentropy = 1.513\nsamples = 636\nvalue = [0, 7, 441, 44, 1, 0, 12, 58, 72, 1]"] ;
575 -> 576 ;
577 [label="X_419 <= 0.016\nentropy = 2.068\nsamples = 315\nvalue = [0, 5, 145, 35, 1, 0, 9, 55, 64, 1]"] ;
576 -> 577 ;
578 [label="X_466 <= 0.384\nentropy = 2.143\nsamples = 214\nvalue = [0, 2, 75, 30, 1, 0, 5, 36, 64, 1]"] ;
577 -> 578 ;
579 [label="entropy = 1.847\nsamples = 104\nvalue = [0, 0, 24, 24, 0, 0, 3, 3, 49, 1]"] ;
578 -> 579 ;
580 [label="entropy = 1.928\nsamples = 110\nvalue = [0, 2, 51, 6, 1, 0, 2, 33, 15, 0]"] ;
578 -> 580 ;
581 [label="entropy = 1.37\nsamples = 101\nvalue = [0, 3, 70, 5, 0, 0, 4, 19, 0, 0]"] ;
577 -> 581 ;
582 [label="X_445 <= 0.051\nentropy = 0.557\nsamples = 321\nvalue = [0, 2, 296, 9, 0, 0, 3, 3, 8, 0]"] ;
576 -> 582 ;
583 [label="X_220 <= 0.686\nentropy = 0.187\nsamples = 208\nvalue = [0, 2, 203, 0, 0, 0, 0, 3, 0, 0]"] ;
582 -> 583 ;
584 [label="entropy = 0.0\nsamples = 108\nvalue = [0, 0, 108, 0, 0, 0, 0, 0, 0, 0]"] ;
583 -> 584 ;
585 [label="entropy = 0.335\nsamples = 100\nvalue = [0, 2, 95, 0, 0, 0, 0, 3, 0, 0]"] ;
583 -> 585 ;
586 [label="entropy = 0.931\nsamples = 113\nvalue = [0, 0, 93, 9, 0, 0, 3, 0, 8, 0]"] ;
582 -> 586 ;
587 [label="X_493 <= 0.441\nentropy = 1.117\nsamples = 984\nvalue = [2, 2, 111, 49, 4, 5, 17, 6, 784, 4]"] ;
575 -> 587 ;
588 [label="X_273 <= 0.49\nentropy = 0.532\nsamples = 702\nvalue = [1, 0, 15, 35, 2, 0, 0, 2, 645, 2]"] ;
587 -> 588 ;
589 [label="entropy = 0.994\nsamples = 186\nvalue = [1, 0, 12, 25, 0, 0, 0, 1, 147, 0]"] ;
588 -> 589 ;
590 [label="X_220 <= 0.163\nentropy = 0.282\nsamples = 516\nvalue = [0, 0, 3, 10, 2, 0, 0, 1, 498, 2]"] ;
588 -> 590 ;
591 [label="X_524 <= 0.349\nentropy = 0.072\nsamples = 391\nvalue = [0, 0, 1, 2, 0, 0, 0, 0, 388, 0]"] ;
590 -> 591 ;
592 [label="entropy = 0.22\nsamples = 101\nvalue = [0, 0, 1, 2, 0, 0, 0, 0, 98, 0]"] ;
591 -> 592 ;
593 [label="entropy = 0.0\nsamples = 290\nvalue = [0, 0, 0, 0, 0, 0, 0, 0, 290, 0]"] ;
591 -> 593 ;
594 [label="entropy = 0.758\nsamples = 125\nvalue = [0, 0, 2, 8, 2, 0, 0, 1, 110, 2]"] ;
590 -> 594 ;
595 [label="X_573 <= 0.457\nentropy = 1.863\nsamples = 282\nvalue = [1, 2, 96, 14, 2, 5, 17, 4, 139, 2]"] ;
587 -> 595 ;
596 [label="entropy = 1.554\nsamples = 109\nvalue = [0, 1, 70, 3, 1, 0, 13, 1, 20, 0]"] ;
595 -> 596 ;
597 [label="entropy = 1.613\nsamples = 173\nvalue = [1, 1, 26, 11, 1, 5, 4, 3, 119, 2]"] ;
595 -> 597 ;
598 [label="X_518 <= 0.163\nentropy = 2.681\nsamples = 14192\nvalue = [199, 33, 1032, 344, 4357, 1115, 2662, 540, 887, 3023]"] ;
268 -> 598 ;
599 [label="X_648 <= 0.014\nentropy = 2.197\nsamples = 8348\nvalue = [28, 22, 302, 258, 3578, 685, 157, 320, 331, 2667]"] ;
598 -> 599 ;
600 [label="X_597 <= 0.045\nentropy = 2.13\nsamples = 7092\nvalue = [27, 21, 302, 219, 3440, 551, 157, 127, 307, 1941]"] ;
599 -> 600 ;
601 [label="X_135 <= 0.249\nentropy = 1.759\nsamples = 6024\nvalue = [5, 16, 266, 45, 3277, 132, 148, 120, 115, 1900]"] ;
600 -> 601 ;
602 [label="X_192 <= 0.127\nentropy = 1.421\nsamples = 4126\nvalue = [5, 6, 124, 13, 2895, 69, 106, 97, 22, 789]"] ;
601 -> 602 ;
603 [label="X_274 <= 0.131\nentropy = 0.672\nsamples = 2680\nvalue = [2, 1, 59, 5, 2426, 21, 101, 11, 9, 45]"] ;
602 -> 603 ;
604 [label="X_464 <= 0.743\nentropy = 0.558\nsamples = 2507\nvalue = [1, 1, 44, 1, 2309, 6, 98, 7, 6, 34]"] ;
603 -> 604 ;
605 [label="X_486 <= 0.016\nentropy = 0.328\nsamples = 2137\nvalue = [1, 1, 20, 1, 2055, 5, 10, 7, 5, 32]"] ;
604 -> 605 ;
606 [label="X_220 <= 0.049\nentropy = 0.282\nsamples = 2026\nvalue = [1, 1, 7, 1, 1961, 5, 7, 7, 5, 31]"] ;
605 -> 606 ;
607 [label="X_414 <= 0.727\nentropy = 0.191\nsamples = 1922\nvalue = [1, 0, 4, 0, 1881, 3, 7, 1, 2, 23]"] ;
606 -> 607 ;
608 [label="X_362 <= 0.776\nentropy = 0.474\nsamples = 392\nvalue = [1, 0, 2, 0, 367, 2, 6, 0, 2, 12]"] ;
607 -> 608 ;
609 [label="entropy = 0.959\nsamples = 123\nvalue = [1, 0, 2, 0, 104, 1, 6, 0, 2, 7]"] ;
608 -> 609 ;
610 [label="X_185 <= 0.375\nentropy = 0.169\nsamples = 269\nvalue = [0, 0, 0, 0, 263, 1, 0, 0, 0, 5]"] ;
608 -> 610 ;
611 [label="entropy = 0.0\nsamples = 160\nvalue = [0, 0, 0, 0, 160, 0, 0, 0, 0, 0]"] ;
610 -> 611 ;
612 [label="entropy = 0.343\nsamples = 109\nvalue = [0, 0, 0, 0, 103, 1, 0, 0, 0, 5]"] ;
610 -> 612 ;
613 [label="X_416 <= 0.004\nentropy = 0.099\nsamples = 1530\nvalue = [0, 0, 2, 0, 1514, 1, 1, 1, 0, 11]"] ;
607 -> 613 ;
614 [label="entropy = 0.273\nsamples = 187\nvalue = [0, 0, 1, 0, 180, 1, 0, 0, 0, 5]"] ;
613 -> 614 ;
615 [label="X_133 <= 0.659\nentropy = 0.068\nsamples = 1343\nvalue = [0, 0, 1, 0, 1334, 0, 1, 1, 0, 6]"] ;
613 -> 615 ;
616 [label="X_184 <= 0.441\nentropy = 0.029\nsamples = 1127\nvalue = [0, 0, 0, 0, 1124, 0, 0, 1, 0, 2]"] ;
615 -> 616 ;
617 [label="entropy = 0.0\nsamples = 910\nvalue = [0, 0, 0, 0, 910, 0, 0, 0, 0, 0]"] ;
616 -> 617 ;
618 [label="X_359 <= 0.557\nentropy = 0.118\nsamples = 217\nvalue = [0, 0, 0, 0, 214, 0, 0, 1, 0, 2]"] ;
616 -> 618 ;
619 [label="entropy = 0.222\nsamples = 100\nvalue = [0, 0, 0, 0, 97, 0, 0, 1, 0, 2]"] ;
618 -> 619 ;
620 [label="entropy = 0.0\nsamples = 117\nvalue = [0, 0, 0, 0, 117, 0, 0, 0, 0, 0]"] ;
618 -> 620 ;
621 [label="X_245 <= 0.031\nentropy = 0.218\nsamples = 216\nvalue = [0, 0, 1, 0, 210, 0, 1, 0, 0, 4]"] ;
615 -> 621 ;
622 [label="entropy = 0.318\nsamples = 102\nvalue = [0, 0, 1, 0, 97, 0, 0, 0, 0, 4]"] ;
621 -> 622 ;
623 [label="entropy = 0.073\nsamples = 114\nvalue = [0, 0, 0, 0, 113, 0, 1, 0, 0, 0]"] ;
621 -> 623 ;
624 [label="entropy = 1.347\nsamples = 104\nvalue = [0, 1, 3, 1, 80, 2, 0, 6, 3, 8]"] ;
606 -> 624 ;
625 [label="entropy = 0.767\nsamples = 111\nvalue = [0, 0, 13, 0, 94, 0, 3, 0, 0, 1]"] ;
605 -> 625 ;
626 [label="X_196 <= 0.002\nentropy = 1.208\nsamples = 370\nvalue = [0, 0, 24, 0, 254, 1, 88, 0, 1, 2]"] ;
604 -> 626 ;
627 [label="entropy = 1.375\nsamples = 153\nvalue = [0, 0, 9, 0, 57, 1, 84, 0, 0, 2]"] ;
626 -> 627 ;
628 [label="X_488 <= 0.153\nentropy = 0.535\nsamples = 217\nvalue = [0, 0, 15, 0, 197, 0, 4, 0, 1, 0]"] ;
626 -> 628 ;
629 [label="entropy = 0.356\nsamples = 117\nvalue = [0, 0, 1, 0, 111, 0, 4, 0, 1, 0]"] ;
628 -> 629 ;
630 [label="entropy = 0.584\nsamples = 100\nvalue = [0, 0, 14, 0, 86, 0, 0, 0, 0, 0]"] ;
628 -> 630 ;
631 [label="entropy = 1.743\nsamples = 173\nvalue = [1, 0, 15, 4, 117, 15, 3, 4, 3, 11]"] ;
603 -> 631 ;
632 [label="X_137 <= 0.004\nentropy = 1.804\nsamples = 1446\nvalue = [3, 5, 65, 8, 469, 48, 5, 86, 13, 744]"] ;
602 -> 632 ;
633 [label="X_164 <= 0.425\nentropy = 1.395\nsamples = 848\nvalue = [3, 0, 32, 7, 74, 30, 0, 72, 3, 627]"] ;
632 -> 633 ;
634 [label="X_333 <= 0.771\nentropy = 2.169\nsamples = 290\nvalue = [3, 0, 21, 6, 55, 22, 0, 44, 2, 137]"] ;
633 -> 634 ;
635 [label="entropy = 2.625\nsamples = 100\nvalue = [3, 0, 13, 6, 16, 22, 0, 12, 1, 27]"] ;
634 -> 635 ;
636 [label="entropy = 1.59\nsamples = 190\nvalue = [0, 0, 8, 0, 39, 0, 0, 32, 1, 110]"] ;
634 -> 636 ;
637 [label="X_299 <= 0.112\nentropy = 0.779\nsamples = 558\nvalue = [0, 0, 11, 1, 19, 8, 0, 28, 1, 490]"] ;
633 -> 637 ;
638 [label="X_213 <= 0.284\nentropy = 0.65\nsamples = 257\nvalue = [0, 0, 11, 1, 0, 3, 0, 12, 0, 230]"] ;
637 -> 638 ;
639 [label="entropy = 0.898\nsamples = 101\nvalue = [0, 0, 11, 1, 0, 2, 0, 3, 0, 84]"] ;
638 -> 639 ;
640 [label="entropy = 0.374\nsamples = 156\nvalue = [0, 0, 0, 0, 0, 1, 0, 9, 0, 146]"] ;
638 -> 640 ;
641 [label="X_625 <= 0.102\nentropy = 0.785\nsamples = 301\nvalue = [0, 0, 0, 0, 19, 5, 0, 16, 1, 260]"] ;
637 -> 641 ;
642 [label="entropy = 0.723\nsamples = 180\nvalue = [0, 0, 0, 0, 18, 2, 0, 3, 1, 156]"] ;
641 -> 642 ;
643 [label="entropy = 0.723\nsamples = 121\nvalue = [0, 0, 0, 0, 1, 3, 0, 13, 0, 104]"] ;
641 -> 643 ;
644 [label="X_163 <= 0.402\nentropy = 1.595\nsamples = 598\nvalue = [0, 5, 33, 1, 395, 18, 5, 14, 10, 117]"] ;
632 -> 644 ;
645 [label="X_306 <= 0.506\nentropy = 0.673\nsamples = 361\nvalue = [0, 3, 17, 1, 326, 3, 0, 5, 1, 5]"] ;
644 -> 645 ;
646 [label="entropy = 1.459\nsamples = 103\nvalue = [0, 2, 13, 1, 75, 3, 0, 5, 1, 3]"] ;
645 -> 646 ;
647 [label="X_438 <= 0.575\nentropy = 0.217\nsamples = 258\nvalue = [0, 1, 4, 0, 251, 0, 0, 0, 0, 2]"] ;
645 -> 647 ;
648 [label="entropy = 0.153\nsamples = 158\nvalue = [0, 1, 0, 0, 155, 0, 0, 0, 0, 2]"] ;
647 -> 648 ;
649 [label="entropy = 0.242\nsamples = 100\nvalue = [0, 0, 4, 0, 96, 0, 0, 0, 0, 0]"] ;
647 -> 649 ;
650 [label="X_189 <= 0.431\nentropy = 2.078\nsamples = 237\nvalue = [0, 2, 16, 0, 69, 15, 5, 9, 9, 112]"] ;
644 -> 650 ;
651 [label="entropy = 1.73\nsamples = 102\nvalue = [0, 2, 10, 0, 60, 0, 5, 0, 3, 22]"] ;
650 -> 651 ;
652 [label="entropy = 1.662\nsamples = 135\nvalue = [0, 0, 6, 0, 9, 15, 0, 9, 6, 90]"] ;
650 -> 652 ;
653 [label="X_108 <= 0.002\nentropy = 1.912\nsamples = 1898\nvalue = [0, 10, 142, 32, 382, 63, 42, 23, 93, 1111]"] ;
601 -> 653 ;
654 [label="X_110 <= 0.002\nentropy = 1.391\nsamples = 1351\nvalue = [0, 7, 49, 18, 174, 32, 8, 22, 33, 1008]"] ;
653 -> 654 ;
655 [label="X_186 <= 0.033\nentropy = 0.99\nsamples = 1154\nvalue = [0, 2, 25, 16, 69, 20, 0, 22, 23, 977]"] ;
654 -> 655 ;
656 [label="X_138 <= 0.016\nentropy = 1.132\nsamples = 425\nvalue = [0, 2, 17, 2, 60, 7, 0, 5, 1, 331]"] ;
655 -> 656 ;
657 [label="entropy = 1.626\nsamples = 130\nvalue = [0, 2, 9, 1, 50, 3, 0, 1, 0, 64]"] ;
656 -> 657 ;
658 [label="X_577 <= 0.465\nentropy = 0.661\nsamples = 295\nvalue = [0, 0, 8, 1, 10, 4, 0, 4, 1, 267]"] ;
656 -> 658 ;
659 [label="entropy = 0.799\nsamples = 134\nvalue = [0, 0, 8, 0, 2, 2, 0, 4, 1, 117]"] ;
658 -> 659 ;
660 [label="entropy = 0.435\nsamples = 161\nvalue = [0, 0, 0, 1, 8, 2, 0, 0, 0, 150]"] ;
658 -> 660 ;
661 [label="X_361 <= 0.504\nentropy = 0.796\nsamples = 729\nvalue = [0, 0, 8, 14, 9, 13, 0, 17, 22, 646]"] ;
655 -> 661 ;
662 [label="entropy = 1.919\nsamples = 111\nvalue = [0, 0, 4, 11, 4, 13, 0, 2, 11, 66]"] ;
661 -> 662 ;
663 [label="X_241 <= 0.414\nentropy = 0.46\nsamples = 618\nvalue = [0, 0, 4, 3, 5, 0, 0, 15, 11, 580]"] ;
661 -> 663 ;
664 [label="entropy = 0.958\nsamples = 101\nvalue = [0, 0, 4, 3, 2, 0, 0, 8, 0, 84]"] ;
663 -> 664 ;
665 [label="X_467 <= 0.088\nentropy = 0.303\nsamples = 517\nvalue = [0, 0, 0, 0, 3, 0, 0, 7, 11, 496]"] ;
663 -> 665 ;
666 [label="entropy = 0.0\nsamples = 285\nvalue = [0, 0, 0, 0, 0, 0, 0, 0, 0, 285]"] ;
665 -> 666 ;
667 [label="X_652 <= 0.241\nentropy = 0.567\nsamples = 232\nvalue = [0, 0, 0, 0, 3, 0, 0, 7, 11, 211]"] ;
665 -> 667 ;
668 [label="entropy = 0.269\nsamples = 132\nvalue = [0, 0, 0, 0, 2, 0, 0, 0, 3, 127]"] ;
667 -> 668 ;
669 [label="entropy = 0.838\nsamples = 100\nvalue = [0, 0, 0, 0, 1, 0, 0, 7, 8, 84]"] ;
667 -> 669 ;
670 [label="entropy = 2.127\nsamples = 197\nvalue = [0, 5, 24, 2, 105, 12, 8, 0, 10, 31]"] ;
654 -> 670 ;
671 [label="X_245 <= 0.253\nentropy = 2.445\nsamples = 547\nvalue = [0, 3, 93, 14, 208, 31, 34, 1, 60, 103]"] ;
653 -> 671 ;
672 [label="X_356 <= 0.108\nentropy = 2.513\nsamples = 319\nvalue = [0, 0, 87, 14, 45, 20, 17, 0, 50, 86]"] ;
671 -> 672 ;
673 [label="entropy = 2.152\nsamples = 139\nvalue = [0, 0, 13, 2, 31, 5, 16, 0, 7, 65]"] ;
672 -> 673 ;
674 [label="entropy = 2.27\nsamples = 180\nvalue = [0, 0, 74, 12, 14, 15, 1, 0, 43, 21]"] ;
672 -> 674 ;
675 [label="X_432 <= 0.051\nentropy = 1.568\nsamples = 228\nvalue = [0, 3, 6, 0, 163, 11, 17, 1, 10, 17]"] ;
671 -> 675 ;
676 [label="entropy = 2.061\nsamples = 100\nvalue = [0, 3, 1, 0, 56, 9, 9, 1, 10, 11]"] ;
675 -> 676 ;
677 [label="entropy = 0.95\nsamples = 128\nvalue = [0, 0, 5, 0, 107, 2, 8, 0, 0, 6]"] ;
675 -> 677 ;
678 [label="X_462 <= 0.01\nentropy = 2.418\nsamples = 1068\nvalue = [22, 5, 36, 174, 163, 419, 9, 7, 192, 41]"] ;
600 -> 678 ;
679 [label="X_165 <= 0.224\nentropy = 2.122\nsamples = 767\nvalue = [9, 3, 28, 159, 133, 371, 2, 7, 21, 34]"] ;
678 -> 679 ;
680 [label="X_335 <= 0.008\nentropy = 2.043\nsamples = 267\nvalue = [2, 3, 23, 19, 123, 84, 1, 5, 4, 3]"] ;
679 -> 680 ;
681 [label="entropy = 1.759\nsamples = 135\nvalue = [1, 3, 4, 16, 24, 83, 0, 2, 1, 1]"] ;
680 -> 681 ;
682 [label="entropy = 1.338\nsamples = 132\nvalue = [1, 0, 19, 3, 99, 1, 1, 3, 3, 2]"] ;
680 -> 682 ;
683 [label="X_278 <= 0.118\nentropy = 1.704\nsamples = 500\nvalue = [7, 0, 5, 140, 10, 287, 1, 2, 17, 31]"] ;
679 -> 683 ;
684 [label="X_118 <= 0.004\nentropy = 1.061\nsamples = 340\nvalue = [5, 0, 5, 19, 4, 284, 1, 1, 8, 13]"] ;
683 -> 684 ;
685 [label="entropy = 1.494\nsamples = 189\nvalue = [4, 0, 5, 19, 2, 137, 0, 1, 8, 13]"] ;
684 -> 685 ;
686 [label="entropy = 0.216\nsamples = 151\nvalue = [1, 0, 0, 0, 2, 147, 1, 0, 0, 0]"] ;
684 -> 686 ;
687 [label="entropy = 1.303\nsamples = 160\nvalue = [2, 0, 0, 121, 6, 3, 0, 1, 9, 18]"] ;
683 -> 687 ;
688 [label="X_253 <= 0.116\nentropy = 2.068\nsamples = 301\nvalue = [13, 2, 8, 15, 30, 48, 7, 0, 171, 7]"] ;
678 -> 688 ;
689 [label="entropy = 2.379\nsamples = 102\nvalue = [7, 1, 4, 7, 10, 41, 6, 0, 26, 0]"] ;
688 -> 689 ;
690 [label="entropy = 1.534\nsamples = 199\nvalue = [6, 1, 4, 8, 20, 7, 1, 0, 145, 7]"] ;
688 -> 690 ;
691 [label="X_172 <= 0.006\nentropy = 1.848\nsamples = 1256\nvalue = [1, 1, 0, 39, 138, 134, 0, 193, 24, 726]"] ;
599 -> 691 ;
692 [label="X_166 <= 0.465\nentropy = 1.495\nsamples = 1037\nvalue = [0, 1, 0, 37, 78, 36, 0, 170, 9, 706]"] ;
691 -> 692 ;
693 [label="X_248 <= 0.002\nentropy = 1.863\nsamples = 257\nvalue = [0, 0, 0, 7, 68, 11, 0, 109, 0, 62]"] ;
692 -> 693 ;
694 [label="entropy = 1.435\nsamples = 102\nvalue = [0, 0, 0, 0, 62, 3, 0, 11, 0, 26]"] ;
693 -> 694 ;
695 [label="entropy = 1.511\nsamples = 155\nvalue = [0, 0, 0, 7, 6, 8, 0, 98, 0, 36]"] ;
693 -> 695 ;
696 [label="X_494 <= 0.425\nentropy = 1.023\nsamples = 780\nvalue = [0, 1, 0, 30, 10, 25, 0, 61, 9, 644]"] ;
692 -> 696 ;
697 [label="entropy = 1.707\nsamples = 110\nvalue = [0, 0, 0, 25, 1, 25, 0, 0, 4, 55]"] ;
696 -> 697 ;
698 [label="X_435 <= 0.124\nentropy = 0.681\nsamples = 670\nvalue = [0, 1, 0, 5, 9, 0, 0, 61, 5, 589]"] ;
696 -> 698 ;
699 [label="X_250 <= 0.822\nentropy = 0.846\nsamples = 384\nvalue = [0, 1, 0, 4, 7, 0, 0, 58, 0, 314]"] ;
698 -> 699 ;
700 [label="X_386 <= 0.873\nentropy = 0.598\nsamples = 264\nvalue = [0, 0, 0, 4, 1, 0, 0, 25, 0, 234]"] ;
699 -> 700 ;
701 [label="entropy = 0.833\nsamples = 101\nvalue = [0, 0, 0, 1, 0, 0, 0, 22, 0, 78]"] ;
700 -> 701 ;
702 [label="entropy = 0.318\nsamples = 163\nvalue = [0, 0, 0, 3, 1, 0, 0, 3, 0, 156]"] ;
700 -> 702 ;
703 [label="entropy = 1.176\nsamples = 120\nvalue = [0, 1, 0, 0, 6, 0, 0, 33, 0, 80]"] ;
699 -> 703 ;
704 [label="X_214 <= 0.227\nentropy = 0.304\nsamples = 286\nvalue = [0, 0, 0, 1, 2, 0, 0, 3, 5, 275]"] ;
698 -> 704 ;
705 [label="entropy = 0.134\nsamples = 186\nvalue = [0, 0, 0, 1, 2, 0, 0, 0, 0, 183]"] ;
704 -> 705 ;
706 [label="entropy = 0.479\nsamples = 100\nvalue = [0, 0, 0, 0, 0, 0, 0, 3, 5, 92]"] ;
704 -> 706 ;
707 [label="X_167 <= 0.598\nentropy = 2.05\nsamples = 219\nvalue = [1, 0, 0, 2, 60, 98, 0, 23, 15, 20]"] ;
691 -> 707 ;
708 [label="entropy = 1.593\nsamples = 101\nvalue = [0, 0, 0, 0, 60, 16, 0, 20, 2, 3]"] ;
707 -> 708 ;
709 [label="entropy = 1.411\nsamples = 118\nvalue = [1, 0, 0, 2, 0, 82, 0, 3, 13, 17]"] ;
707 -> 709 ;
710 [label="X_225 <= 0.002\nentropy = 2.566\nsamples = 5844\nvalue = [171, 11, 730, 86, 779, 430, 2505, 220, 556, 356]"] ;
598 -> 710 ;
711 [label="X_600 <= 0.002\nentropy = 1.483\nsamples = 3070\nvalue = [17, 9, 246, 31, 150, 129, 2289, 20, 127, 52]"] ;
710 -> 711 ;
712 [label="X_222 <= 0.169\nentropy = 1.076\nsamples = 2730\nvalue = [11, 8, 234, 5, 104, 47, 2244, 11, 30, 36]"] ;
711 -> 712 ;
713 [label="X_256 <= 0.045\nentropy = 0.492\nsamples = 2281\nvalue = [5, 4, 43, 2, 28, 25, 2142, 3, 13, 16]"] ;
712 -> 713 ;
714 [label="X_490 <= 0.251\nentropy = 0.297\nsamples = 2163\nvalue = [1, 4, 30, 2, 2, 20, 2089, 3, 4, 8]"] ;
713 -> 714 ;
715 [label="entropy = 1.58\nsamples = 140\nvalue = [0, 4, 8, 2, 2, 11, 102, 3, 2, 6]"] ;
714 -> 715 ;
716 [label="X_365 <= 0.014\nentropy = 0.156\nsamples = 2023\nvalue = [1, 0, 22, 0, 0, 9, 1987, 0, 2, 2]"] ;
714 -> 716 ;
717 [label="X_244 <= 0.222\nentropy = 0.402\nsamples = 425\nvalue = [0, 0, 16, 0, 0, 9, 399, 0, 1, 0]"] ;
716 -> 717 ;
718 [label="entropy = 0.944\nsamples = 100\nvalue = [0, 0, 16, 0, 0, 4, 79, 0, 1, 0]"] ;
717 -> 718 ;
719 [label="X_439 <= 0.582\nentropy = 0.115\nsamples = 325\nvalue = [0, 0, 0, 0, 0, 5, 320, 0, 0, 0]"] ;
717 -> 719 ;
720 [label="entropy = 0.199\nsamples = 162\nvalue = [0, 0, 0, 0, 0, 5, 157, 0, 0, 0]"] ;
719 -> 720 ;
721 [label="entropy = 0.0\nsamples = 163\nvalue = [0, 0, 0, 0, 0, 0, 163, 0, 0, 0]"] ;
719 -> 721 ;
722 [label="X_335 <= 0.075\nentropy = 0.065\nsamples = 1598\nvalue = [1, 0, 6, 0, 0, 0, 1588, 0, 1, 2]"] ;
716 -> 722 ;
723 [label="entropy = 0.298\nsamples = 131\nvalue = [0, 0, 5, 0, 0, 0, 125, 0, 0, 1]"] ;
722 -> 723 ;
724 [label="X_184 <= 0.014\nentropy = 0.033\nsamples = 1467\nvalue = [1, 0, 1, 0, 0, 0, 1463, 0, 1, 1]"] ;
722 -> 724 ;
725 [label="X_449 <= 0.043\nentropy = 0.009\nsamples = 1323\nvalue = [0, 0, 0, 0, 0, 0, 1322, 0, 0, 1]"] ;
724 -> 725 ;
726 [label="entropy = 0.0\nsamples = 1223\nvalue = [0, 0, 0, 0, 0, 0, 1223, 0, 0, 0]"] ;
725 -> 726 ;
727 [label="entropy = 0.081\nsamples = 100\nvalue = [0, 0, 0, 0, 0, 0, 99, 0, 0, 1]"] ;
725 -> 727 ;
728 [label="entropy = 0.179\nsamples = 144\nvalue = [1, 0, 1, 0, 0, 0, 141, 0, 1, 0]"] ;
724 -> 728 ;
729 [label="entropy = 2.255\nsamples = 118\nvalue = [4, 0, 13, 0, 26, 5, 53, 0, 9, 8]"] ;
713 -> 729 ;
730 [label="X_109 <= 0.004\nentropy = 2.332\nsamples = 449\nvalue = [6, 4, 191, 3, 76, 22, 102, 8, 17, 20]"] ;
712 -> 730 ;
731 [label="X_523 <= 0.033\nentropy = 2.493\nsamples = 240\nvalue = [6, 2, 21, 1, 71, 20, 85, 7, 11, 16]"] ;
730 -> 731 ;
732 [label="entropy = 2.304\nsamples = 129\nvalue = [5, 2, 19, 0, 67, 5, 6, 7, 5, 13]"] ;
731 -> 732 ;
733 [label="entropy = 1.507\nsamples = 111\nvalue = [1, 0, 2, 1, 4, 15, 79, 0, 6, 3]"] ;
731 -> 733 ;
734 [label="X_324 <= 0.01\nentropy = 1.151\nsamples = 209\nvalue = [0, 2, 170, 2, 5, 2, 17, 1, 6, 4]"] ;
730 -> 734 ;
735 [label="entropy = 0.076\nsamples = 107\nvalue = [0, 0, 106, 1, 0, 0, 0, 0, 0, 0]"] ;
734 -> 735 ;
736 [label="entropy = 1.843\nsamples = 102\nvalue = [0, 2, 64, 1, 5, 2, 17, 1, 6, 4]"] ;
734 -> 736 ;
737 [label="X_277 <= 0.006\nentropy = 2.715\nsamples = 340\nvalue = [6, 1, 12, 26, 46, 82, 45, 9, 97, 16]"] ;
711 -> 737 ;
738 [label="entropy = 1.95\nsamples = 152\nvalue = [3, 0, 3, 1, 1, 76, 34, 0, 27, 7]"] ;
737 -> 738 ;
739 [label="entropy = 2.575\nsamples = 188\nvalue = [3, 1, 9, 25, 45, 6, 11, 9, 70, 9]"] ;
737 -> 739 ;
740 [label="X_602 <= 0.006\nentropy = 2.95\nsamples = 2774\nvalue = [154, 2, 484, 55, 629, 301, 216, 200, 429, 304]"] ;
710 -> 740 ;
741 [label="X_498 <= 0.01\nentropy = 2.792\nsamples = 2198\nvalue = [127, 1, 469, 19, 607, 233, 205, 192, 68, 277]"] ;
740 -> 741 ;
742 [label="X_647 <= 0.006\nentropy = 2.491\nsamples = 1448\nvalue = [58, 1, 112, 9, 569, 181, 16, 192, 45, 265]"] ;
741 -> 742 ;
743 [label="X_388 <= 0.151\nentropy = 2.305\nsamples = 1001\nvalue = [58, 1, 112, 9, 490, 179, 16, 36, 36, 64]"] ;
742 -> 743 ;
744 [label="X_305 <= 0.01\nentropy = 1.44\nsamples = 221\nvalue = [0, 1, 0, 0, 42, 152, 8, 2, 10, 6]"] ;
743 -> 744 ;
745 [label="entropy = 0.071\nsamples = 118\nvalue = [0, 0, 0, 0, 0, 117, 1, 0, 0, 0]"] ;
744 -> 745 ;
746 [label="entropy = 2.061\nsamples = 103\nvalue = [0, 1, 0, 0, 42, 35, 7, 2, 10, 6]"] ;
744 -> 746 ;
747 [label="X_166 <= 0.324\nentropy = 2.09\nsamples = 780\nvalue = [58, 0, 112, 9, 448, 27, 8, 34, 26, 58]"] ;
743 -> 747 ;
748 [label="X_541 <= 0.049\nentropy = 1.258\nsamples = 545\nvalue = [10, 0, 39, 3, 432, 18, 8, 24, 10, 1]"] ;
747 -> 748 ;
749 [label="X_247 <= 0.206\nentropy = 0.615\nsamples = 445\nvalue = [3, 0, 3, 0, 407, 6, 4, 18, 3, 1]"] ;
748 -> 749 ;
750 [label="X_361 <= 0.986\nentropy = 0.263\nsamples = 345\nvalue = [0, 0, 3, 0, 334, 0, 4, 1, 3, 0]"] ;
749 -> 750 ;
751 [label="entropy = 0.634\nsamples = 105\nvalue = [0, 0, 3, 0, 95, 0, 3, 1, 3, 0]"] ;
750 -> 751 ;
752 [label="X_572 <= 0.967\nentropy = 0.039\nsamples = 240\nvalue = [0, 0, 0, 0, 239, 0, 1, 0, 0, 0]"] ;
750 -> 752 ;
753 [label="entropy = 0.081\nsamples = 100\nvalue = [0, 0, 0, 0, 99, 0, 1, 0, 0, 0]"] ;
752 -> 753 ;
754 [label="entropy = 0.0\nsamples = 140\nvalue = [0, 0, 0, 0, 140, 0, 0, 0, 0, 0]"] ;
752 -> 754 ;
755 [label="entropy = 1.228\nsamples = 100\nvalue = [3, 0, 0, 0, 73, 6, 0, 17, 0, 1]"] ;
749 -> 755 ;
756 [label="entropy = 2.516\nsamples = 100\nvalue = [7, 0, 36, 3, 25, 12, 4, 6, 7, 0]"] ;
748 -> 756 ;
757 [label="X_432 <= 0.188\nentropy = 2.525\nsamples = 235\nvalue = [48, 0, 73, 6, 16, 9, 0, 10, 16, 57]"] ;
747 -> 757 ;
758 [label="entropy = 2.486\nsamples = 100\nvalue = [3, 0, 7, 6, 10, 8, 0, 9, 12, 45]"] ;
757 -> 758 ;
759 [label="entropy = 1.798\nsamples = 135\nvalue = [45, 0, 66, 0, 6, 1, 0, 1, 4, 12]"] ;
757 -> 759 ;
760 [label="X_412 <= 0.865\nentropy = 1.639\nsamples = 447\nvalue = [0, 0, 0, 0, 79, 2, 0, 156, 9, 201]"] ;
742 -> 760 ;
761 [label="entropy = 1.207\nsamples = 189\nvalue = [0, 0, 0, 0, 8, 0, 0, 97, 0, 84]"] ;
760 -> 761 ;
762 [label="X_380 <= 0.69\nentropy = 1.74\nsamples = 258\nvalue = [0, 0, 0, 0, 71, 2, 0, 59, 9, 117]"] ;
760 -> 762 ;
763 [label="entropy = 1.638\nsamples = 101\nvalue = [0, 0, 0, 0, 16, 1, 0, 48, 2, 34]"] ;
762 -> 763 ;
764 [label="entropy = 1.532\nsamples = 157\nvalue = [0, 0, 0, 0, 55, 1, 0, 11, 7, 83]"] ;
762 -> 764 ;
765 [label="X_245 <= 0.529\nentropy = 2.145\nsamples = 750\nvalue = [69, 0, 357, 10, 38, 52, 189, 0, 23, 12]"] ;
741 -> 765 ;
766 [label="X_112 <= 0.008\nentropy = 1.549\nsamples = 535\nvalue = [2, 0, 324, 8, 16, 6, 154, 0, 17, 8]"] ;
765 -> 766 ;
767 [label="X_104 <= 0.076\nentropy = 1.49\nsamples = 205\nvalue = [0, 0, 21, 4, 13, 6, 148, 0, 10, 3]"] ;
766 -> 767 ;
768 [label="entropy = 2.156\nsamples = 103\nvalue = [0, 0, 15, 4, 12, 6, 53, 0, 10, 3]"] ;
767 -> 768 ;
769 [label="entropy = 0.401\nsamples = 102\nvalue = [0, 0, 6, 0, 1, 0, 95, 0, 0, 0]"] ;
767 -> 769 ;
770 [label="X_188 <= 0.516\nentropy = 0.611\nsamples = 330\nvalue = [2, 0, 303, 4, 3, 0, 6, 0, 7, 5]"] ;
766 -> 770 ;
771 [label="X_512 <= 0.406\nentropy = 0.153\nsamples = 230\nvalue = [0, 0, 226, 1, 2, 0, 0, 0, 0, 1]"] ;
770 -> 771 ;
772 [label="entropy = 0.222\nsamples = 100\nvalue = [0, 0, 97, 0, 2, 0, 0, 0, 0, 1]"] ;
771 -> 772 ;
773 [label="entropy = 0.065\nsamples = 130\nvalue = [0, 0, 129, 1, 0, 0, 0, 0, 0, 0]"] ;
771 -> 773 ;
774 [label="entropy = 1.319\nsamples = 100\nvalue = [2, 0, 77, 3, 1, 0, 6, 0, 7, 4]"] ;
770 -> 774 ;
775 [label="X_309 <= 0.608\nentropy = 2.492\nsamples = 215\nvalue = [67, 0, 33, 2, 22, 46, 35, 0, 6, 4]"] ;
765 -> 775 ;
776 [label="entropy = 2.248\nsamples = 100\nvalue = [11, 0, 14, 1, 13, 46, 11, 0, 4, 0]"] ;
775 -> 776 ;
777 [label="entropy = 2.024\nsamples = 115\nvalue = [56, 0, 19, 1, 9, 0, 24, 0, 2, 4]"] ;
775 -> 777 ;
778 [label="X_270 <= 0.786\nentropy = 1.978\nsamples = 576\nvalue = [27, 1, 15, 36, 22, 68, 11, 8, 361, 27]"] ;
740 -> 778 ;
779 [label="X_303 <= 0.12\nentropy = 1.953\nsamples = 210\nvalue = [2, 1, 14, 35, 3, 16, 5, 1, 125, 8]"] ;
778 -> 779 ;
780 [label="entropy = 1.692\nsamples = 110\nvalue = [2, 0, 11, 0, 3, 11, 2, 1, 74, 6]"] ;
779 -> 780 ;
781 [label="entropy = 1.724\nsamples = 100\nvalue = [0, 1, 3, 35, 0, 5, 3, 0, 51, 2]"] ;
779 -> 781 ;
782 [label="X_436 <= 0.541\nentropy = 1.769\nsamples = 366\nvalue = [25, 0, 1, 1, 19, 52, 6, 7, 236, 19]"] ;
778 -> 782 ;
783 [label="entropy = 2.253\nsamples = 147\nvalue = [14, 0, 0, 1, 7, 46, 2, 7, 56, 14]"] ;
782 -> 783 ;
784 [label="X_407 <= 0.378\nentropy = 1.087\nsamples = 219\nvalue = [11, 0, 1, 0, 12, 6, 4, 0, 180, 5]"] ;
782 -> 784 ;
785 [label="entropy = 0.21\nsamples = 119\nvalue = [0, 0, 1, 0, 0, 0, 1, 0, 116, 1]"] ;
784 -> 785 ;
786 [label="entropy = 1.71\nsamples = 100\nvalue = [11, 0, 0, 0, 12, 6, 3, 0, 64, 4]"] ;
784 -> 786 ;
}